{"learner":{"attributes":{"scikit_learn":"{\"_estimator_type\": \"regressor\"}"},"feature_names":["pm25_lag_1d","pm25_lag_2d","pm25_lag_3d","temperature_2m_mean","precipitation_sum","wind_speed_10m_max","wind_direction_10m_dominant"],"feature_types":["float","float","float","float","float","float","float"],"gradient_booster":{"model":{"gbtree_model_param":{"num_parallel_tree":"1","num_trees":"100"},"iteration_indptr":[0,1,2,3,4,5,6,7,8,9,10,11,12,13,14,15,16,17,18,19,20,21,22,23,24,25,26,27,28,29,30,31,32,33,34,35,36,37,38,39,40,41,42,43,44,45,46,47,48,49,50,51,52,53,54,55,56,57,58,59,60,61,62,63,64,65,66,67,68,69,70,71,72,73,74,75,76,77,78,79,80,81,82,83,84,85,86,87,88,89,90,91,92,93,94,95,96,97,98,99,100],"tree_info":[0,0,0,0,0,0,0,0,0,0,0,0,0,0,0,0,0,0,0,0,0,0,0,0,0,0,0,0,0,0,0,0,0,0,0,0,0,0,0,0,0,0,0,0,0,0,0,0,0,0,0,0,0,0,0,0,0,0,0,0,0,0,0,0,0,0,0,0,0,0,0,0,0,0,0,0,0,0,0,0,0,0,0,0,0,0,0,0,0,0,0,0,0,0,0,0,0,0,0,0],"trees":[{"base_weights":[-1.622585E-7,-6.301651E0,1.0130148E1,-9.533274E0,-2.891992E0,7.063525E0,2.3389147E1,-1.216877E1,-8.11748E0,-8.1996995E-1,-4.6327295E0,4.452517E0,1.1507969E1,1.910673E1,3.4098686E1,-9.087386E0,-1.2709089E1,-6.9430237E0,-9.499663E0,-2.7959914E0,1.1979647E0,-2.9888709E0,-6.295465E0,7.0579553E0,1.8835671E0,1.3342143E1,2.9257488E0,2.215607E1,1.2698328E1,3.658585E1,5.8893614E0,-1.3106384E0,-9.871501E0,-1.1656606E1,-4.2275405E0,-8.109758E0,-5.5111575E0,-9.90989E0,-4.881383E0,9.092197E-1,-4.1621456E0,6.009498E0,1.8362956E-1,-1.9628732E0,-6.177909E0,-4.3801146E0,-7.561853E0,-2.7151853E-1,8.744795E0,1.1334774E1,3.9179167E-1,8.901937E0,1.5622923E1,4.3998017E0,-6.5471125E0,2.412844E1,1.1737589E1,3.7833655E0,1.5366024E1,1.7881458E1,3.913571E1,-2.0744706E-2,2.218883E0,4.292553E-1,-7.061171E-1,-3.1320038E0,7.23404E-2,-3.5499578E0,-1.4731915E0,-2.5348125E0,9.2680854E-1,-1.8266675E0,-6.6941494E-1,-3.7820039E0,-2.780762E0,2.3792553E0,-1.7919375E0,3.6262168E-4,6.129256E0,1.918883E0,-1.3462632E0,3.788697E0,9.604863E-1,5.6283325E-1,-6.6217715E-1,-1.6404257E0,-2.1408862E-1,-2.1472342E0,3.1723404E0,-2.324022E0,-6.343751E-1,-2.3330076E0,8.7234044E-1,7.1918213E-1,-2.0459902E0,2.7291336E0,2.297872E-1,8.680847E-2,3.8707068E0,7.0580524E-1,-1.52961E0,1.4445479E0,3.8595746E0,6.375363E0,3.9200785E0,-3.5669595E-1,2.326714E0,-3.5131915E0,1.2723404E0,7.3591394E0,2.1723404E0,3.9900458E0,-1.5207448E0,2.3265953E-1,5.0792556E0,-1.5207448E0,4.856623E0,6.566809E0,1.5723405E0,8.641276E0,1.3251619E1],"categories":[],"categories_nodes":[],"categories_segments":[],"categories_sizes":[],"default_left":[0,0,0,0,0,0,0,0,0,0,0,0,0,0,0,0,0,0,0,0,0,0,0,0,0,0,0,0,1,0,0,0,0,0,0,0,0,0,0,0,0,0,0,0,0,0,0,0,0,0,0,0,0,0,0,0,0,0,0,0,1,0,0,0,0,0,0,0,0,0,0,0,0,0,0,0,0,0,0,0,0,0,0,0,0,0,0,0,0,0,0,0,0,0,0,0,0,0,0,0,0,0,0,0,0,0,0,0,0,0,0,0,0,0,0,0,0,0,0,0,0],"id":0,"left_children":[1,3,5,7,9,11,13,15,17,19,21,23,25,27,29,31,33,35,37,39,41,43,45,47,49,51,53,55,57,59,61,63,65,67,-1,69,71,73,75,77,79,81,83,85,87,89,91,93,95,97,99,101,103,105,107,109,111,113,115,117,119,-1,-1,-1,-1,-1,-1,-1,-1,-1,-1,-1,-1,-1,-1,-1,-1,-1,-1,-1,-1,-1,-1,-1,-1,-1,-1,-1,-1,-1,-1,-1,-1,-1,-1,-1,-1,-1,-1,-1,-1,-1,-1,-1,-1,-1,-1,-1,-1,-1,-1,-1,-1,-1,-1,-1,-1,-1,-1,-1,-1],"loss_changes":[1.5014381E5,1.594959E4,3.6510414E4,2.6773203E3,2.5462422E3,8.466445E3,7.099297E3,3.140586E2,7.245957E2,1.2952936E3,1.0307715E3,3.0923691E3,4.2268555E3,2.122246E3,3.0821055E3,2.4317212E2,1.5153516E2,4.013584E2,3.7032227E2,8.339343E2,7.846582E2,6.2590295E2,4.2773877E2,2.8460137E3,3.3088423E3,2.1192773E3,7.130176E2,1.4018164E3,9.407256E2,1.3510195E3,4.5406296E1,1.7665861E1,2.2098486E2,9.55625E1,0E0,5.775957E2,2.1947803E2,2.3216016E2,3.271249E2,7.976388E2,4.4098584E2,4.7999487E2,5.463762E2,6.48549E2,8.46937E2,5.7854004E2,2.7678223E2,7.853131E2,5.187031E2,5.50333E2,2.2083135E3,1.2014312E3,1.8226484E3,8.1570685E2,4.3960416E2,2.8402734E2,4.6134424E2,4.218695E2,6.2006104E2,2.3990308E2,6.528711E2,0E0,0E0,0E0,0E0,0E0,0E0,0E0,0E0,0E0,0E0,0E0,0E0,0E0,0E0,0E0,0E0,0E0,0E0,0E0,0E0,0E0,0E0,0E0,0E0,0E0,0E0,0E0,0E0,0E0,0E0,0E0,0E0,0E0,0E0,0E0,0E0,0E0,0E0,0E0,0E0,0E0,0E0,0E0,0E0,0E0,0E0,0E0,0E0,0E0,0E0,0E0,0E0,0E0,0E0,0E0,0E0,0E0,0E0,0E0,0E0],"parents":[2147483647,0,0,1,1,2,2,3,3,4,4,5,5,6,6,7,7,8,8,9,9,10,10,11,11,12,12,13,13,14,14,15,15,16,16,17,17,18,18,19,19,20,20,21,21,22,22,23,23,24,24,25,25,26,26,27,27,28,28,29,29,30,30,31,31,32,32,33,33,35,35,36,36,37,37,38,38,39,39,40,40,41,41,42,42,43,43,44,44,45,45,46,46,47,47,48,48,49,49,50,50,51,51,52,52,53,53,54,54,55,55,56,56,57,57,58,58,59,59,60,60],"right_children":[2,4,6,8,10,12,14,16,18,20,22,24,26,28,30,32,34,36,38,40,42,44,46,48,50,52,54,56,58,60,62,64,66,68,-1,70,72,74,76,78,80,82,84,86,88,90,92,94,96,98,100,102,104,106,108,110,112,114,116,118,120,-1,-1,-1,-1,-1,-1,-1,-1,-1,-1,-1,-1,-1,-1,-1,-1,-1,-1,-1,-1,-1,-1,-1,-1,-1,-1,-1,-1,-1,-1,-1,-1,-1,-1,-1,-1,-1,-1,-1,-1,-1,-1,-1,-1,-1,-1,-1,-1,-1,-1,-1,-1,-1,-1,-1,-1,-1,-1,-1,-1],"split_conditions":[2.5E1,1.6E1,4.8E1,1.1E1,1.6375053E1,3.6E1,6.2E1,1.2665E0,1.80036E1,2E1,2.3889368E2,2.1426363E2,2.1479664E1,1.9201874E1,2.3166218E1,1.5273505E1,2.7157083E2,1.4E1,1.70665E1,1.7498335E0,1.5E1,5E0,3.5998328E0,5.993618E1,1.2758432E1,3.5998328E0,1.3191499E1,2.5994666E2,2.7E1,2.3E1,1E-1,1E1,5.2274996E-1,2.674345E2,-4.2275405E0,1.85915E1,1.7163355E1,1.2E1,8.942129E1,1.624394E1,9E0,1.1874544E1,1.4118243E1,1.0953055E2,1.9029E1,1.9E1,3.2074364E1,1.8218275E1,1.1900001E1,2.230126E2,9.000001E-1,3E1,8.301917E0,2.4435833E0,3.7E1,6.5E1,6.3E1,5.7E1,-1.5522503E0,6.6E1,6.6E1,-2.0744706E-2,2.218883E0,4.292553E-1,-7.061171E-1,-3.1320038E0,7.23404E-2,-3.5499578E0,-1.4731915E0,-2.5348125E0,9.2680854E-1,-1.8266675E0,-6.6941494E-1,-3.7820039E0,-2.780762E0,2.3792553E0,-1.7919375E0,3.6262168E-4,6.129256E0,1.918883E0,-1.3462632E0,3.788697E0,9.604863E-1,5.6283325E-1,-6.6217715E-1,-1.6404257E0,-2.1408862E-1,-2.1472342E0,3.1723404E0,-2.324022E0,-6.343751E-1,-2.3330076E0,8.7234044E-1,7.1918213E-1,-2.0459902E0,2.7291336E0,2.297872E-1,8.680847E-2,3.8707068E0,7.0580524E-1,-1.52961E0,1.4445479E0,3.8595746E0,6.375363E0,3.9200785E0,-3.5669595E-1,2.326714E0,-3.5131915E0,1.2723404E0,7.3591394E0,2.1723404E0,3.9900458E0,-1.5207448E0,2.3265953E-1,5.0792556E0,-1.5207448E0,4.856623E0,6.566809E0,1.5723405E0,8.641276E0,1.3251619E1],"split_indices":[0,0,0,0,5,0,0,3,5,0,6,6,5,5,5,5,6,0,3,3,1,4,3,6,5,3,3,6,2,2,4,1,3,6,0,3,5,2,6,5,1,5,5,6,3,0,5,5,4,6,4,2,3,3,1,1,1,0,3,0,0,0,0,0,0,0,0,0,0,0,0,0,0,0,0,0,0,0,0,0,0,0,0,0,0,0,0,0,0,0,0,0,0,0,0,0,0,0,0,0,0,0,0,0,0,0,0,0,0,0,0,0,0,0,0,0,0,0,0,0,0],"split_type":[0,0,0,0,0,0,0,0,0,0,0,0,0,0,0,0,0,0,0,0,0,0,0,0,0,0,0,0,0,0,0,0,0,0,0,0,0,0,0,0,0,0,0,0,0,0,0,0,0,0,0,0,0,0,0,0,0,0,0,0,0,0,0,0,0,0,0,0,0,0,0,0,0,0,0,0,0,0,0,0,0,0,0,0,0,0,0,0,0,0,0,0,0,0,0,0,0,0,0,0,0,0,0,0,0,0,0,0,0,0,0,0,0,0,0,0,0,0,0,0,0],"sum_hessian":[2.35E3,1.449E3,9.01E2,7.43E2,7.06E2,7.33E2,1.68E2,2.57E2,4.86E2,3.23E2,3.83E2,4.63E2,2.7E2,1.22E2,4.6E1,4.1E1,2.16E2,2.66E2,2.2E2,1.63E2,1.6E2,1.94E2,1.89E2,2.29E2,2.34E2,2.22E2,4.8E1,8.1E1,4.1E1,4.2E1,4E0,4E0,3.7E1,1.28E2,8.8E1,1.44E2,1.22E2,2.01E2,1.9E1,4.4E1,1.19E2,2.7E1,1.33E2,1.48E2,4.6E1,7.7E1,1.12E2,4.3E1,1.86E2,3.1E1,2.03E2,7.7E1,1.45E2,4.2E1,6E0,6.7E1,1.4E1,1E1,3.1E1,6E0,3.6E1,1E0,3E0,1E0,3E0,3.5E1,2E0,1.24E2,4E0,1.4E2,4E0,1.03E2,1.9E1,3.5E1,1.66E2,1E0,1.8E1,4.3E1,1E0,3E0,1.16E2,7E0,2E1,7.8E1,5.5E1,3.8E1,1.1E2,4.4E1,2E0,3E1,4.7E1,1.1E2,2E0,3.1E1,1.2E1,1.78E2,8E0,4E0,2.7E1,1.5E2,5.3E1,3.9E1,3.8E1,4.3E1,1.02E2,1.6E1,2.6E1,4E0,2E0,6.5E1,2E0,1.3E1,1E0,9E0,1E0,1E0,3E1,4E0,2E0,1.4E1,2.2E1],"tree_param":{"num_deleted":"0","num_feature":"7","num_nodes":"121","size_leaf_vector":"1"}},{"base_weights":[2.3994157E-2,-3.6454377E0,8.898864E0,-6.471588E0,-7.4961245E-1,6.351161E0,1.6685295E1,-8.566926E0,-5.536428E0,8.988033E-1,-2.436688E0,7.401605E0,6.4998627E-1,1.3542585E1,2.455483E1,-8.780202E0,-4.5265164E0,-3.915648E0,-6.2881117E0,-1.3296366E0,2.3778896E0,2.3813949E0,-3.1647666E0,8.239899E0,4.0134108E-1,-7.165848E0,1.4750087E0,1.5330253E1,8.202576E0,2.6308514E1,4.5621805E0,-6.62668E0,-9.157571E0,-8.364115E-1,-6.2879276E0,-1.7516857E0,-5.573131E0,-5.3927836E0,-7.764053E0,3.683691E0,-1.8852453E0,-1.6967785E0,3.3004823E0,-3.0569884E-1,6.964739E0,-2.2247074E0,-6.1136045E0,8.814691E-1,8.847279E0,3.9442375E0,-6.9309664E0,-2.4529061E0,-1.3846207E-2,5.4031854E0,-1.5739409E0,1.6053595E1,-3.2195777E-1,1.2077951E1,5.0796843E0,3.0211828E1,1.8561573E1,2.0285637E0,8.417549E-1,-2.1341655E0,-1.3900924E-1,-2.761344E0,6.174889E-2,-3.8580772E-1,2.117489E-1,-9.262957E-1,-2.6612017E0,-2.5148211E-2,-1.4086324E0,-1.9589702E0,-2.545366E-1,-2.3641863E0,-1.4608608E0,-2.0569332E0,-2.8705697E0,-1.6071426E0,1.8010997E0,-1.7331296E-1,-1.0818983E0,1.9885795E0,-7.245203E-1,1.4488056E0,3.1220686E-1,-9.5892173E-1,2.1722128E0,-1.001801E0,2.4885464E0,-4.314871E-2,-1.0963237E0,-2.4094784E0,-1.4930817E0,1.5940621E0,-1.2600929E0,3.2876034E0,2.009661E0,-2.9823658E-1,2.2906053E0,-2.8031688E0,7.931384E-1,2.1629324E0,-1.8466996E0,-8.5527873E-1,2.6104064E0,5.172171E0,2.9126568E0,-1.8988513E0,1.7378724E0,4.9947593E-1,5.9038835E0,2.8567278E0,-1.3594401E0,1.5330638E0,9.294219E0,6.0929465E0,1.0899447E0,-1.7633058E-2,3.9642277E-1],"categories":[],"categories_nodes":[],"categories_segments":[],"categories_sizes":[],"default_left":[0,0,0,0,0,0,0,0,0,0,0,0,0,0,0,0,0,0,0,0,0,0,0,0,0,0,0,0,0,0,0,0,0,0,0,1,0,0,0,0,0,0,0,0,0,0,0,0,0,0,0,0,0,0,0,0,0,0,0,0,0,0,0,0,0,0,0,0,0,0,0,0,0,0,0,0,0,0,0,0,0,0,0,0,0,0,0,0,0,0,0,0,0,0,0,0,0,0,0,0,0,0,0,0,0,0,0,0,0,0,0,0,0,0,0,0,0,0,0,0,0],"id":1,"left_children":[1,3,5,7,9,11,13,15,17,19,21,23,25,27,29,31,33,35,37,39,41,43,45,47,49,51,53,55,57,59,61,63,65,67,69,71,73,75,77,79,81,83,85,87,89,91,93,95,97,99,101,-1,-1,103,105,107,109,111,113,115,117,-1,119,-1,-1,-1,-1,-1,-1,-1,-1,-1,-1,-1,-1,-1,-1,-1,-1,-1,-1,-1,-1,-1,-1,-1,-1,-1,-1,-1,-1,-1,-1,-1,-1,-1,-1,-1,-1,-1,-1,-1,-1,-1,-1,-1,-1,-1,-1,-1,-1,-1,-1,-1,-1,-1,-1,-1,-1,-1,-1],"loss_changes":[7.659448E4,1.3613391E4,1.3542242E4,1.6024492E3,2.2909546E3,3.1093457E3,3.8471172E3,1.8258008E2,6.880918E2,1.3776166E3,1.435269E3,2.5728691E3,5.3932526E2,1.0484297E3,1.527834E3,1.3760938E2,9.223758E1,6.6454297E2,4.8406836E2,4.7211465E2,9.491742E2,6.6718634E2,9.6771655E2,1.7441875E3,1.2742626E3,5.717859E1,9.0676526E2,1.0354629E3,3.3802612E2,7.394883E2,3.5227234E1,1.1681555E2,9.193359E1,5.0681953E0,5.526538E1,4.0711707E2,4.73625E2,2.8836523E2,1.7678711E2,3.8872894E2,3.377234E2,2.970699E2,7.032346E2,7.866501E2,3.018745E2,8.0273535E2,1.4533667E2,7.205254E2,1.5686777E3,6.0911597E2,3.9435486E2,0E0,0E0,7.334898E2,5.8902844E2,4.8781445E2,2.2034293E2,1.0754237E3,8.971478E2,3.6279688E2,3.698872E2,0E0,1.3735001E0,0E0,0E0,0E0,0E0,0E0,0E0,0E0,0E0,0E0,0E0,0E0,0E0,0E0,0E0,0E0,0E0,0E0,0E0,0E0,0E0,0E0,0E0,0E0,0E0,0E0,0E0,0E0,0E0,0E0,0E0,0E0,0E0,0E0,0E0,0E0,0E0,0E0,0E0,0E0,0E0,0E0,0E0,0E0,0E0,0E0,0E0,0E0,0E0,0E0,0E0,0E0,0E0,0E0,0E0,0E0,0E0,0E0,0E0],"parents":[2147483647,0,0,1,1,2,2,3,3,4,4,5,5,6,6,7,7,8,8,9,9,10,10,11,11,12,12,13,13,14,14,15,15,16,16,17,17,18,18,19,19,20,20,21,21,22,22,23,23,24,24,25,25,26,26,27,27,28,28,29,29,30,30,31,31,32,32,33,33,34,34,35,35,36,36,37,37,38,38,39,39,40,40,41,41,42,42,43,43,44,44,45,45,46,46,47,47,48,48,49,49,50,50,53,53,54,54,55,55,56,56,57,57,58,58,59,59,60,60,62,62],"right_children":[2,4,6,8,10,12,14,16,18,20,22,24,26,28,30,32,34,36,38,40,42,44,46,48,50,52,54,56,58,60,62,64,66,68,70,72,74,76,78,80,82,84,86,88,90,92,94,96,98,100,102,-1,-1,104,106,108,110,112,114,116,118,-1,120,-1,-1,-1,-1,-1,-1,-1,-1,-1,-1,-1,-1,-1,-1,-1,-1,-1,-1,-1,-1,-1,-1,-1,-1,-1,-1,-1,-1,-1,-1,-1,-1,-1,-1,-1,-1,-1,-1,-1,-1,-1,-1,-1,-1,-1,-1,-1,-1,-1,-1,-1,-1,-1,-1,-1,-1,-1,-1],"split_conditions":[2.9E1,1.7E1,4.8E1,1.1E1,2.2245255E2,2.30653E1,6.2E1,2.7E1,1.5484185E1,2.1E1,1.337825E1,3.0150784E2,1.374943E2,1.9602652E1,2.3166218E1,1.2665E0,3E1,8.94775E0,2.63729E2,1.1E1,5.993618E1,2.4E1,9.000001E-1,4.7720634E1,1.7709658E1,4.1E1,2.3640054E2,6.5E1,1.8384108E2,1.9861992E2,6.6E1,5.2274996E-1,1.41E1,2E1,7.8144174E0,2E1,1.794775E1,6.5523315E1,6E-1,1E1,1.6299694E1,9.346143E0,1.0000001E0,3E1,9.346143E0,2.8998337E0,5.0852504E0,1.4799459E1,1.8598758E2,3.5E1,3.4039917E2,-2.4529061E0,-1.3846207E-2,2.988217E1,4.4E1,2.5994666E2,5.6E1,1.441453E2,2.4999998E0,-4.700166E0,2.4999998E0,2.0285637E0,6.9E1,-2.1341655E0,-1.3900924E-1,-2.761344E0,6.174889E-2,-3.8580772E-1,2.117489E-1,-9.262957E-1,-2.6612017E0,-2.5148211E-2,-1.4086324E0,-1.9589702E0,-2.545366E-1,-2.3641863E0,-1.4608608E0,-2.0569332E0,-2.8705697E0,-1.6071426E0,1.8010997E0,-1.7331296E-1,-1.0818983E0,1.9885795E0,-7.245203E-1,1.4488056E0,3.1220686E-1,-9.5892173E-1,2.1722128E0,-1.001801E0,2.4885464E0,-4.314871E-2,-1.0963237E0,-2.4094784E0,-1.4930817E0,1.5940621E0,-1.2600929E0,3.2876034E0,2.009661E0,-2.9823658E-1,2.2906053E0,-2.8031688E0,7.931384E-1,2.1629324E0,-1.8466996E0,-8.5527873E-1,2.6104064E0,5.172171E0,2.9126568E0,-1.8988513E0,1.7378724E0,4.9947593E-1,5.9038835E0,2.8567278E0,-1.3594401E0,1.5330638E0,9.294219E0,6.0929465E0,1.0899447E0,-1.7633058E-2,3.9642277E-1],"split_indices":[0,0,0,0,6,5,0,1,5,0,5,6,6,5,5,3,1,3,6,1,6,0,4,6,5,2,6,1,6,6,1,3,4,2,3,2,3,6,4,2,5,5,4,2,5,3,3,5,6,0,6,0,0,5,0,6,0,6,4,3,4,0,0,0,0,0,0,0,0,0,0,0,0,0,0,0,0,0,0,0,0,0,0,0,0,0,0,0,0,0,0,0,0,0,0,0,0,0,0,0,0,0,0,0,0,0,0,0,0,0,0,0,0,0,0,0,0,0,0,0,0],"split_type":[0,0,0,0,0,0,0,0,0,0,0,0,0,0,0,0,0,0,0,0,0,0,0,0,0,0,0,0,0,0,0,0,0,0,0,0,0,0,0,0,0,0,0,0,0,0,0,0,0,0,0,0,0,0,0,0,0,0,0,0,0,0,0,0,0,0,0,0,0,0,0,0,0,0,0,0,0,0,0,0,0,0,0,0,0,0,0,0,0,0,0,0,0,0,0,0,0,0,0,0,0,0,0,0,0,0,0,0,0,0,0,0,0,0,0,0,0,0,0,0,0],"sum_hessian":[2.35E3,1.663E3,6.87E2,8.41E2,8.22E2,5.19E2,1.68E2,2.57E2,5.84E2,4.16E2,4.06E2,4.38E2,8.1E1,1.22E2,4.6E1,2.43E2,1.4E1,1.87E2,3.97E2,1.66E2,2.5E2,5.3E1,3.53E2,3.91E2,4.7E1,7E0,7.4E1,9E1,3.2E1,4.2E1,4E0,3.9E1,2.04E2,5E0,9E0,8.2E1,1.05E2,2.5E2,1.47E2,1.6E1,1.5E2,4.6E1,2.04E2,3.4E1,1.9E1,2.69E2,8.4E1,3E1,3.61E2,3.2E1,1.5E1,6E0,1E0,3.2E1,4.2E1,8.6E1,4E0,1.3E1,1.9E1,2.6E1,1.6E1,2E0,2E0,3.6E1,3E0,2.03E2,1E0,4E0,1E0,5E0,4E0,5.3E1,2.9E1,8.7E1,1.8E1,4.1E1,2.09E2,1.01E2,4.6E1,3E0,1.3E1,8.6E1,6.4E1,3E0,4.3E1,1.21E2,8.3E1,2.5E1,9E0,2E0,1.7E1,1.1E2,1.59E2,2.9E1,5.5E1,1.6E1,1.4E1,1.8E2,1.81E2,1.4E1,1.8E1,1.2E1,3E0,2.8E1,4E0,3.8E1,4E0,7.1E1,1.5E1,2E0,2E0,6E0,7E0,1.3E1,6E0,1E0,2.5E1,1.4E1,2E0,1E0,1E0],"tree_param":{"num_deleted":"0","num_feature":"7","num_nodes":"121","size_leaf_vector":"1"}},{"base_weights":[2.5280697E-2,-2.163083E0,7.566607E0,-3.8280804E0,7.9064065E-1,5.9489484E0,1.4199362E1,-5.3997455E0,-2.5279312E0,1.3643165E0,-2.1434891E0,8.140764E0,4.0539846E0,1.2504444E1,2.330925E1,-6.8117123E0,-4.939098E0,-1.4750457E0,-3.49418E0,-3.441574E-1,2.2288296E0,-4.9556786E-1,-4.1930666E0,-1.3226864E0,9.338013E0,6.687271E0,1.6464807E0,1.5001248E1,8.411892E0,2.4813738E1,3.3695927E-1,-6.902016E0,6.8499184E-1,-6.369845E-1,-5.0588064E0,-3.2242765E0,-4.7307158E-1,9.368901E-1,-3.8725016E0,1.4807508E0,-2.307179E0,3.3351963E0,5.195732E-1,-1.2821494E0,1.1033756E1,-4.802535E0,3.711719E0,7.7262416E0,-4.9709105E0,2.871839E0,1.0396563E1,7.6021647E0,-4.424553E0,-2.1125242E-1,6.8779564E0,1.1548092E1,1.8544985E1,9.296992E0,-1.3269632E0,9.299126E-1,2.624561E1,-2.1502311E0,-7.965486E-1,1.5533229E0,-4.9089E-1,-1.5555838E0,-3.8751695E-1,-1.1537347E0,4.202888E-1,2.821395E-1,-5.4778284E-1,-3.4721446E-1,2.5379214E0,-8.773994E-1,-1.5081906E0,-5.883948E-1,8.1094605E-1,-1.049962E-1,-1.2271063E0,2.2341533E0,8.182964E-1,6.429856E-1,-5.4492205E-1,-6.455368E-1,7.8876054E-1,-2.212167E0,5.888281E0,-1.574171E0,9.517092E-1,-3.546238E-2,1.5083293E0,2.6337814E0,2.112096E-1,-2.2340674E0,1.4813247E0,1.2420995E0,-1.5419863E0,3.2398005E0,-2.101327E0,3.5204237E0,1.8101948E0,-2.6921245E-1,-2.5827549E0,-2.4456449E-1,3.938621E0,3.9756198E0,-9.732206E-2,3.7002504E-1,3.926258E0,6.5020046E0,2.7564137E0,2.950635E0,-1.2708161E0,8.388033E0,3.363173E0],"categories":[],"categories_nodes":[],"categories_segments":[],"categories_sizes":[],"default_left":[0,0,0,0,0,0,1,0,0,0,0,0,0,0,0,0,0,0,0,0,0,0,0,0,0,0,0,0,0,0,0,0,0,0,0,0,0,0,0,0,0,0,0,0,0,0,0,0,0,0,0,0,0,0,0,0,0,0,0,0,0,0,0,0,0,0,0,0,0,0,0,0,0,0,0,0,0,0,0,0,0,0,0,0,0,0,0,0,0,0,0,0,0,0,0,0,0,0,0,0,0,0,0,0,0,0,0,0,0,0,0,0,0,0,0],"id":2,"left_children":[1,3,5,7,9,11,13,15,17,19,21,23,25,27,29,31,33,35,37,39,41,43,45,47,49,51,53,55,57,59,-1,61,-1,63,65,67,69,71,73,75,77,79,81,83,85,87,89,91,93,95,97,99,101,103,105,107,109,111,-1,-1,113,-1,-1,-1,-1,-1,-1,-1,-1,-1,-1,-1,-1,-1,-1,-1,-1,-1,-1,-1,-1,-1,-1,-1,-1,-1,-1,-1,-1,-1,-1,-1,-1,-1,-1,-1,-1,-1,-1,-1,-1,-1,-1,-1,-1,-1,-1,-1,-1,-1,-1,-1,-1,-1,-1],"loss_changes":[3.881531E4,8.968436E3,5.591449E3,2.3689531E3,1.110496E3,1.7405049E3,1.2989043E3,3.0912695E2,6.4594946E2,8.1459314E2,3.6269662E2,2.2443809E3,1.4534482E3,7.832412E2,4.7280908E2,1.20066895E2,2.0329199E2,5.383013E2,5.618589E2,6.6973047E2,6.903965E2,5.6734094E2,2.4907605E2,7.976944E2,1.1679785E3,1.1519111E3,1.1871327E3,4.466416E2,4.500952E2,3.5393066E2,0E0,1.2299609E2,0E0,7.820131E1,1.7911133E2,3.273446E2,3.784468E2,4.3517307E2,3.2132764E2,4.1343808E2,3.1266992E2,5.3428687E2,5.5387213E2,2.0294257E2,7.7750165E2,1.7623633E2,2.0755741E1,4.558127E1,4.5384293E2,2.8551654E2,1.1269365E3,5.902178E2,1.2511374E2,7.4387634E2,1.4733761E3,4.6021997E2,5.326621E2,2.894204E2,0E0,0E0,2.165918E1,0E0,0E0,0E0,0E0,0E0,0E0,0E0,0E0,0E0,0E0,0E0,0E0,0E0,0E0,0E0,0E0,0E0,0E0,0E0,0E0,0E0,0E0,0E0,0E0,0E0,0E0,0E0,0E0,0E0,0E0,0E0,0E0,0E0,0E0,0E0,0E0,0E0,0E0,0E0,0E0,0E0,0E0,0E0,0E0,0E0,0E0,0E0,0E0,0E0,0E0,0E0,0E0,0E0,0E0],"parents":[2147483647,0,0,1,1,2,2,3,3,4,4,5,5,6,6,7,7,8,8,9,9,10,10,11,11,12,12,13,13,14,14,15,15,16,16,17,17,18,18,19,19,20,20,21,21,22,22,23,23,24,24,25,25,26,26,27,27,28,28,29,29,31,31,33,33,34,34,35,35,36,36,37,37,38,38,39,39,40,40,41,41,42,42,43,43,44,44,45,45,46,46,47,47,48,48,49,49,50,50,51,51,52,52,53,53,54,54,55,55,56,56,57,57,60,60],"right_children":[2,4,6,8,10,12,14,16,18,20,22,24,26,28,30,32,34,36,38,40,42,44,46,48,50,52,54,56,58,60,-1,62,-1,64,66,68,70,72,74,76,78,80,82,84,86,88,90,92,94,96,98,100,102,104,106,108,110,112,-1,-1,114,-1,-1,-1,-1,-1,-1,-1,-1,-1,-1,-1,-1,-1,-1,-1,-1,-1,-1,-1,-1,-1,-1,-1,-1,-1,-1,-1,-1,-1,-1,-1,-1,-1,-1,-1,-1,-1,-1,-1,-1,-1,-1,-1,-1,-1,-1,-1,-1,-1,-1,-1,-1,-1,-1],"split_conditions":[3.3E1,2.1E1,5.3E1,1.4E1,2.3569693E1,1.9025316E2,7.6E1,1.1E1,2.2396136E2,2.4E1,9.000001E-1,4.578638E1,1E-1,1.8627172E1,8.1E1,3.5846573E2,1.0966713E1,1.0953055E2,1.2324414E1,2.164927E2,1.0758166E1,8E-1,1.3766499E1,1.0630672E1,1.2081667E0,5.4E1,4.4E1,7.7040005E0,6.9E0,2.3E1,3.3695927E-1,6.9E0,6.8499184E-1,1.4E1,1.85915E1,1.70665E1,1.6E1,3E1,2E-1,6.955676E1,4.8789997E0,1.1874544E1,2.1192699E2,1.5966498E1,1.8E1,3.5246925E1,1.9E1,4.5E1,1.5081084E1,1.2351665E2,1.5E1,1.2964998E1,6E1,2.1481085E1,8.301917E0,1.0261579E1,1.51727495E1,8.4E1,-1.3269632E0,9.299126E-1,7.5E1,-2.1502311E0,-7.965486E-1,1.5533229E0,-4.9089E-1,-1.5555838E0,-3.8751695E-1,-1.1537347E0,4.202888E-1,2.821395E-1,-5.4778284E-1,-3.4721446E-1,2.5379214E0,-8.773994E-1,-1.5081906E0,-5.883948E-1,8.1094605E-1,-1.049962E-1,-1.2271063E0,2.2341533E0,8.182964E-1,6.429856E-1,-5.4492205E-1,-6.455368E-1,7.8876054E-1,-2.212167E0,5.888281E0,-1.574171E0,9.517092E-1,-3.546238E-2,1.5083293E0,2.6337814E0,2.112096E-1,-2.2340674E0,1.4813247E0,1.2420995E0,-1.5419863E0,3.2398005E0,-2.101327E0,3.5204237E0,1.8101948E0,-2.6921245E-1,-2.5827549E0,-2.4456449E-1,3.938621E0,3.9756198E0,-9.732206E-2,3.7002504E-1,3.926258E0,6.5020046E0,2.7564137E0,2.950635E0,-1.2708161E0,8.388033E0,3.363173E0],"split_indices":[0,0,0,0,5,6,0,2,6,0,4,6,4,5,2,6,5,6,5,6,3,4,3,5,3,1,0,3,4,2,0,4,0,2,3,3,1,2,4,6,3,5,6,3,1,5,1,0,3,6,4,5,1,3,3,5,3,1,0,0,2,0,0,0,0,0,0,0,0,0,0,0,0,0,0,0,0,0,0,0,0,0,0,0,0,0,0,0,0,0,0,0,0,0,0,0,0,0,0,0,0,0,0,0,0,0,0,0,0,0,0,0,0,0,0],"split_type":[0,0,0,0,0,0,0,0,0,0,0,0,0,0,0,0,0,0,0,0,0,0,0,0,0,0,0,0,0,0,0,0,0,0,0,0,0,0,0,0,0,0,0,0,0,0,0,0,0,0,0,0,0,0,0,0,0,0,0,0,0,0,0,0,0,0,0,0,0,0,0,0,0,0,0,0,0,0,0,0,0,0,0,0,0,0,0,0,0,0,0,0,0,0,0,0,0,0,0,0,0,0,0,0,0,0,0,0,0,0,0,0,0,0,0],"sum_hessian":[2.35E3,1.822E3,5.28E2,1.165E3,6.57E2,4.26E2,1.02E2,5.26E2,6.39E2,5.5E2,1.07E2,1.96E2,2.3E2,8.8E1,1.4E1,1.26E2,4E2,3.07E2,3.32E2,1.85E2,3.65E2,6E1,4.7E1,2.2E1,1.74E2,1.09E2,1.21E2,5.3E1,3.5E1,1.3E1,1E0,1.25E2,1E0,1.1E1,3.89E2,1.11E2,1.96E2,2.6E1,3.06E2,9.6E1,8.9E1,2.21E2,1.44E2,5.7E1,3E0,4.4E1,3E0,6E0,1.6E1,2.5E1,1.49E2,1.01E2,8E0,9E1,3.1E1,2.9E1,2.4E1,3.3E1,2E0,1E0,1.2E1,1.17E2,8E0,1E0,1E1,3.76E2,1.3E1,9.8E1,1.3E1,9.6E1,1E2,2.1E1,5E0,1.7E2,1.36E2,2.5E1,7.1E1,4.3E1,4.6E1,2.7E1,1.94E2,8.5E1,5.9E1,4.7E1,1E1,1E0,2E0,4.2E1,2E0,1E0,2E0,5E0,1E0,1.3E1,3E0,2.2E1,3E0,1.46E2,3E0,2.6E1,7.5E1,5E0,3E0,8.7E1,3E0,1.6E1,1.5E1,4E0,2.5E1,1.7E1,7E0,3.2E1,1E0,1E1,2E0],"tree_param":{"num_deleted":"0","num_feature":"7","num_nodes":"115","size_leaf_vector":"1"}},{"base_weights":[3.568098E-2,-2.2372003E0,3.6893861E0,-3.2458203E0,-8.390142E-1,1.8967191E0,7.3347287E0,-4.153986E0,-2.6007948E0,1.3145972E0,-1.2101411E0,2.8578281E0,-3.9646376E-2,6.3976994E0,1.4394759E1,-2.603872E0,-4.6296678E0,-1.6318645E0,-3.0460322E0,8.915421E0,3.5999438E-1,-3.2654476E-1,-2.2238321E0,2.1110585E0,5.3404202E0,5.346242E0,-5.6346446E-1,8.46407E0,4.067356E0,1.5674171E1,8.806248E-1,-3.8289845E-1,-4.2616253E0,-3.650884E0,-5.531228E0,-7.8284633E-1,-3.299111E0,-2.110766E0,-3.8456235E0,9.776303E0,1.7512122E-1,-1.1033881E0,1.6788763E0,-6.342381E-1,1.9093113E0,-3.828857E0,-1.2312089E0,2.6457384E-1,3.138629E0,8.113705E0,2.9977596E0,2.1234396E0,1.609519E1,6.2788504E-1,-3.2497911E0,9.020773E0,-3.322429E0,4.7615614E0,-1.8263972E0,2.968203E0,1.7446604E1,-4.5758346E-1,6.5730554E-1,-5.520191E-1,7.346388E-1,-7.0407575E-1,-1.5436913E0,-1.4886837E0,-9.2875725E-1,-1.7392932E0,-7.693665E-1,1.5511763E-1,-6.7472434E-1,-4.8192614E-1,-1.3933694E0,-1.3663863E0,-4.211838E-1,-9.286579E-1,-1.4972526E0,3.4303503E0,7.945221E-1,-7.960949E-1,7.817514E-1,4.356577E0,2.0945787E-1,-6.8326867E-1,3.414654E-2,-2.7142422E-2,2.890709E0,-7.8378874E-1,-1.349032E0,2.2395313E-1,-7.63021E-1,-1.00089364E-1,2.1642706E0,1.2026951E0,1.7028981E-1,9.5041496E-1,3.2231865E0,1.5032969E0,-5.535584E-1,3.2076092E0,-2.7291322E-1,1.3902444E0,5.5112467E0,-8.9717233E-1,4.4503295E-1,3.684049E-1,-1.4208722E0,7.2792315E-1,2.9705484E0,3.0198386E0,-2.169463E0,3.0699344E0,1.0424551E0,2.383417E0,-1.2350932E0,1.634738E0,-1.0433235E0,4.064141E0,6.816296E0],"categories":[],"categories_nodes":[],"categories_segments":[],"categories_sizes":[],"default_left":[0,0,0,0,0,0,1,0,0,0,0,0,0,0,0,0,0,1,0,0,0,0,0,0,0,0,0,0,0,0,0,0,0,0,0,0,0,0,0,0,0,0,0,0,0,0,0,0,0,0,0,0,0,0,0,0,0,0,0,0,0,0,0,0,0,0,0,0,0,0,0,0,0,0,0,0,0,0,0,0,0,0,0,0,0,0,0,0,0,0,0,0,0,0,0,0,0,0,0,0,0,0,0,0,0,0,0,0,0,0,0,0,0,0,0,0,0,0,0,0,0],"id":3,"left_children":[1,3,5,7,9,11,13,15,17,19,21,23,25,27,29,31,33,35,37,39,41,43,45,47,49,51,53,55,57,59,61,63,65,67,69,71,73,75,77,79,-1,81,83,85,87,89,91,93,95,97,99,101,103,105,107,109,111,113,115,117,119,-1,-1,-1,-1,-1,-1,-1,-1,-1,-1,-1,-1,-1,-1,-1,-1,-1,-1,-1,-1,-1,-1,-1,-1,-1,-1,-1,-1,-1,-1,-1,-1,-1,-1,-1,-1,-1,-1,-1,-1,-1,-1,-1,-1,-1,-1,-1,-1,-1,-1,-1,-1,-1,-1,-1,-1,-1,-1,-1,-1],"loss_changes":[1.9531988E4,2.0421226E3,5.8805547E3,4.8243066E2,4.8834216E2,1.1279146E3,1.8726982E3,2.4454688E2,2.085747E2,6.498095E2,4.6503455E2,7.395657E2,5.729E2,1.2368271E3,5.74062E2,3.0764172E2,2.1365039E2,2.2106985E2,2.4464941E2,6.6019226E1,1.5818477E2,1.9315126E2,3.8083667E2,5.930537E2,5.798855E2,5.89374E2,5.9410596E2,9.420283E2,5.242224E2,6.463491E2,1.595263E1,1.5717706E2,6.916943E1,7.925928E1,9.262158E1,2.031953E2,1.1324298E2,2.6652936E2,1.4003418E2,7.609198E1,0E0,2.311755E2,5.314442E2,3.026682E2,5.262098E2,6.2986816E1,3.937666E2,4.7218436E2,4.4749768E2,5.1231177E2,5.162451E2,3.9957397E2,1.9191284E1,4.0379483E2,3.8521014E2,7.487041E2,4.391554E2,7.599961E2,3.460497E2,9.891017E1,2.4751172E2,0E0,0E0,0E0,0E0,0E0,0E0,0E0,0E0,0E0,0E0,0E0,0E0,0E0,0E0,0E0,0E0,0E0,0E0,0E0,0E0,0E0,0E0,0E0,0E0,0E0,0E0,0E0,0E0,0E0,0E0,0E0,0E0,0E0,0E0,0E0,0E0,0E0,0E0,0E0,0E0,0E0,0E0,0E0,0E0,0E0,0E0,0E0,0E0,0E0,0E0,0E0,0E0,0E0,0E0,0E0,0E0,0E0,0E0,0E0,0E0],"parents":[2147483647,0,0,1,1,2,2,3,3,4,4,5,5,6,6,7,7,8,8,9,9,10,10,11,11,12,12,13,13,14,14,15,15,16,16,17,17,18,18,19,19,20,20,21,21,22,22,23,23,24,24,25,25,26,26,27,27,28,28,29,29,30,30,31,31,32,32,33,33,34,34,35,35,36,36,37,37,38,38,39,39,41,41,42,42,43,43,44,44,45,45,46,46,47,47,48,48,49,49,50,50,51,51,52,52,53,53,54,54,55,55,56,56,57,57,58,58,59,59,60,60],"right_children":[2,4,6,8,10,12,14,16,18,20,22,24,26,28,30,32,34,36,38,40,42,44,46,48,50,52,54,56,58,60,62,64,66,68,70,72,74,76,78,80,-1,82,84,86,88,90,92,94,96,98,100,102,104,106,108,110,112,114,116,118,120,-1,-1,-1,-1,-1,-1,-1,-1,-1,-1,-1,-1,-1,-1,-1,-1,-1,-1,-1,-1,-1,-1,-1,-1,-1,-1,-1,-1,-1,-1,-1,-1,-1,-1,-1,-1,-1,-1,-1,-1,-1,-1,-1,-1,-1,-1,-1,-1,-1,-1,-1,-1,-1,-1,-1,-1,-1,-1,-1,-1],"split_conditions":[2.5E1,1.7E1,4.1E1,1.2E1,1.2287555E1,1E0,6.5E1,2.8456662E0,1.5484185E1,-2.1730833E0,2.1E1,3.6E1,1.1252519E1,1.9686177E2,2.3166218E1,2E-1,2.4989505E2,2.1E1,2.3889368E2,1E-1,1.5228467E2,1.829775E1,2.2E1,2.3E1,3.4E1,1.0829958E1,2.3889368E2,2.4693481E1,1.8060247E1,2.3E1,6.9E1,1.1E1,1.8532135E1,8.942129E1,1.6553999E1,1.4E1,6.0810833E0,1.2E1,7.2935834E0,1.1753877E1,1.7512122E-1,7E-1,1.5761122E2,1.3E1,1E0,1.6179985E1,2.2172786E2,2.0866499E1,1.6220667E1,4.2165E0,2.2918866E2,8.287822E0,2.7E1,8.719882E1,1.4689588E1,4.578638E1,4.3E1,1.3324863E1,4.4E1,5.2E1,1.0620668E1,-4.5758346E-1,6.5730554E-1,-5.520191E-1,7.346388E-1,-7.0407575E-1,-1.5436913E0,-1.4886837E0,-9.2875725E-1,-1.7392932E0,-7.693665E-1,1.5511763E-1,-6.7472434E-1,-4.8192614E-1,-1.3933694E0,-1.3663863E0,-4.211838E-1,-9.286579E-1,-1.4972526E0,3.4303503E0,7.945221E-1,-7.960949E-1,7.817514E-1,4.356577E0,2.0945787E-1,-6.8326867E-1,3.414654E-2,-2.7142422E-2,2.890709E0,-7.8378874E-1,-1.349032E0,2.2395313E-1,-7.63021E-1,-1.00089364E-1,2.1642706E0,1.2026951E0,1.7028981E-1,9.5041496E-1,3.2231865E0,1.5032969E0,-5.535584E-1,3.2076092E0,-2.7291322E-1,1.3902444E0,5.5112467E0,-8.9717233E-1,4.4503295E-1,3.684049E-1,-1.4208722E0,7.2792315E-1,2.9705484E0,3.0198386E0,-2.169463E0,3.0699344E0,1.0424551E0,2.383417E0,-1.2350932E0,1.634738E0,-1.0433235E0,4.064141E0,6.816296E0],"split_indices":[0,0,0,0,5,4,0,3,5,3,1,0,5,6,5,4,6,2,6,4,6,3,2,1,1,5,6,5,3,2,0,0,5,6,3,1,3,2,3,5,0,4,6,2,4,5,6,3,3,3,6,5,0,6,5,6,0,5,0,1,3,0,0,0,0,0,0,0,0,0,0,0,0,0,0,0,0,0,0,0,0,0,0,0,0,0,0,0,0,0,0,0,0,0,0,0,0,0,0,0,0,0,0,0,0,0,0,0,0,0,0,0,0,0,0,0,0,0,0,0,0],"split_type":[0,0,0,0,0,0,0,0,0,0,0,0,0,0,0,0,0,0,0,0,0,0,0,0,0,0,0,0,0,0,0,0,0,0,0,0,0,0,0,0,0,0,0,0,0,0,0,0,0,0,0,0,0,0,0,0,0,0,0,0,0,0,0,0,0,0,0,0,0,0,0,0,0,0,0,0,0,0,0,0,0,0,0,0,0,0,0,0,0,0,0,0,0,0,0,0,0,0,0,0,0,0,0,0,0,0,0,0,0,0,0,0,0,0,0,0,0,0,0,0,0],"sum_hessian":[2.35E3,1.449E3,9.01E2,8.41E2,6.08E2,6.05E2,2.96E2,3.47E2,4.94E2,8.9E1,5.19E2,4.04E2,2.01E2,2.63E2,3.3E1,8.3E1,2.64E2,1.57E2,3.37E2,9E0,8E1,2.78E2,2.41E2,3.12E2,9.2E1,1.7E1,1.84E2,1.38E2,1.25E2,3E1,3E0,3.6E1,4.7E1,1.29E2,1.35E2,1.05E2,5.2E1,1.57E2,1.8E2,8E0,1E0,3.8E1,4.2E1,2.45E2,3.3E1,9.1E1,1.5E2,1.12E2,2E2,4.1E1,5.1E1,1.4E1,3E0,1.28E2,5.6E1,1.32E2,6E0,1.12E2,1.3E1,4E0,2.6E1,1E0,2E0,2.4E1,1.2E1,1.6E1,3.1E1,3.6E1,9.3E1,1.23E2,1.2E1,5.6E1,4.9E1,2.4E1,2.8E1,3.4E1,1.23E2,1.11E2,6.9E1,6E0,2E0,2.7E1,1.1E1,2E0,4E1,7.6E1,1.69E2,2.7E1,6E0,3.4E1,5.7E1,6E1,9E1,1.04E2,8E0,1.49E2,5.1E1,1.5E1,2.6E1,3.6E1,1.5E1,3E0,1.1E1,1E0,2E0,2.4E1,1.04E2,1.4E1,4.2E1,1.6E1,1.16E2,1E0,5E0,2E1,9.2E1,2E0,1.1E1,3E0,1E0,1.7E1,9E0],"tree_param":{"num_deleted":"0","num_feature":"7","num_nodes":"121","size_leaf_vector":"1"}},{"base_weights":[3.9127372E-2,-1.026705E0,3.9768853E0,-1.9195229E0,4.9232158E-1,2.9749699E0,7.3520274E0,-2.703475E0,-1.2709881E0,8.660855E-1,-1.3327875E0,3.493092E0,-9.5309174E-1,8.383179E-2,7.9742174E0,-1.7910866E0,-3.0100117E0,-1.404073E0,2.0590632E0,1.2669485E0,-1.343947E0,-5.597914E0,-8.8186055E-1,4.0828047E0,-6.070629E-1,3.7071218E0,-3.3276184E0,-4.344626E0,5.381215E0,9.518146E0,4.1546884E0,-1.2723707E0,-5.0920525E0,-2.2244143E0,-3.8208485E0,-1.2144672E0,-3.7271345E0,-3.5666484E-1,2.9304938E0,-1.0716391E0,1.5948925E0,3.1061357E-1,-3.980914E0,-4.752088E-1,-5.8409E0,-1.6010723E0,1.9696883E0,4.8908906E0,9.0191054E-1,-3.0118022E0,2.1701183E0,1.5223628E0,7.0946603E0,1.68943E0,-4.1396713E0,1.8514506E0,-2.3716583E0,3.215038E0,1.3681221E0,8.115373E0,1.5476129E1,-3.354554E-1,8.665798E0,5.123466E-1,-5.069916E-1,-1.6397418E0,-4.2040542E-1,-1.066899E0,-5.2169245E-1,-1.2154174E0,-4.1015828E-1,-2.2399864E-1,-6.513303E-1,-2.071359E0,-6.7986155E-1,-5.706489E-1,1.0699574E0,1.5545323E0,-4.8325294E-1,1.3112161E0,3.736592E-1,-1.9132999E-1,1.128637E0,-1.8699379E0,4.1023728E-2,-1.835241E0,-5.027653E-1,-5.1476188E-2,-1.32145E0,1.893305E0,-6.522008E-1,1.8942351E0,1.1355522E0,-1.2317333E0,1.1881318E0,1.9030969E0,-1.245194E0,-3.653919E-1,2.7360892E0,2.5648696E0,-2.967569E-1,-5.209234E-1,2.762447E0,-1.6377462E0,5.4846096E-1,-2.345089E-1,1.0676618E0,4.775524E-1,1.0454465E-1,3.061973E0,8.536386E-1,5.229031E0,2.0166478E0,2.0901644E0,-9.355111E-1,-5.124982E-1,2.8413885E0],"categories":[],"categories_nodes":[],"categories_segments":[],"categories_sizes":[],"default_left":[0,0,0,0,0,0,0,0,0,0,0,0,0,0,0,0,0,0,0,0,0,0,0,0,0,0,0,0,0,0,0,0,0,0,0,0,0,0,0,0,0,0,0,0,0,0,0,0,0,0,0,0,0,0,0,0,0,0,0,0,0,0,0,0,0,0,0,0,0,0,0,0,0,0,0,0,0,0,0,0,0,0,0,0,0,0,0,0,0,0,0,0,0,0,0,0,0,0,0,0,0,0,0,0,0,0,0,0,0,0,0,0,0,0,0,0,0],"id":4,"left_children":[1,3,5,7,9,11,13,15,17,19,21,23,25,27,29,31,33,35,37,39,41,43,45,47,49,51,53,55,57,59,61,63,65,67,69,71,73,75,-1,77,79,81,83,-1,85,87,89,91,93,95,97,99,101,-1,103,105,-1,-1,107,109,111,113,115,-1,-1,-1,-1,-1,-1,-1,-1,-1,-1,-1,-1,-1,-1,-1,-1,-1,-1,-1,-1,-1,-1,-1,-1,-1,-1,-1,-1,-1,-1,-1,-1,-1,-1,-1,-1,-1,-1,-1,-1,-1,-1,-1,-1,-1,-1,-1,-1,-1,-1,-1,-1,-1,-1],"loss_changes":[9.871206E3,2.5112969E3,1.672313E3,5.8938184E2,4.6911603E2,7.929927E2,5.148618E2,1.4200049E2,2.8652588E2,5.066771E2,2.2008492E2,8.3182275E2,5.213628E2,2.5797174E2,5.7964844E2,2.2467654E2,2.4183838E2,2.6680054E2,4.6907025E2,3.7213446E2,3.8518246E2,1.4763184E0,2.2259647E2,7.667202E2,3.0038544E2,1.0761464E2,2.4884421E2,1.4701837E2,9.239897E1,4.928745E2,6.510839E2,1.4974094E2,1.7169891E1,1.2442163E2,1.0307007E2,2.5391174E2,1.9788263E2,1.2804974E2,0E0,2.1065898E2,4.0573804E2,1.8243321E2,3.161631E2,0E0,1.2670288E0,3.439265E2,4.094808E2,3.5221045E2,9.6586255E2,2.8203613E2,5.056129E2,2.025982E2,1.2797577E2,0E0,2.3834106E2,1.626963E1,0E0,0E0,3.577242E-1,6.542256E2,1.05197754E2,3.6721237E2,1.4988135E2,0E0,0E0,0E0,0E0,0E0,0E0,0E0,0E0,0E0,0E0,0E0,0E0,0E0,0E0,0E0,0E0,0E0,0E0,0E0,0E0,0E0,0E0,0E0,0E0,0E0,0E0,0E0,0E0,0E0,0E0,0E0,0E0,0E0,0E0,0E0,0E0,0E0,0E0,0E0,0E0,0E0,0E0,0E0,0E0,0E0,0E0,0E0,0E0,0E0,0E0,0E0,0E0,0E0,0E0],"parents":[2147483647,0,0,1,1,2,2,3,3,4,4,5,5,6,6,7,7,8,8,9,9,10,10,11,11,12,12,13,13,14,14,15,15,16,16,17,17,18,18,19,19,20,20,21,21,22,22,23,23,24,24,25,25,26,26,27,27,28,28,29,29,30,30,31,31,32,32,33,33,34,34,35,35,36,36,37,37,39,39,40,40,41,41,42,42,44,44,45,45,46,46,47,47,48,48,49,49,50,50,51,51,52,52,54,54,55,55,58,58,59,59,60,60,61,61,62,62],"right_children":[2,4,6,8,10,12,14,16,18,20,22,24,26,28,30,32,34,36,38,40,42,44,46,48,50,52,54,56,58,60,62,64,66,68,70,72,74,76,-1,78,80,82,84,-1,86,88,90,92,94,96,98,100,102,-1,104,106,-1,-1,108,110,112,114,116,-1,-1,-1,-1,-1,-1,-1,-1,-1,-1,-1,-1,-1,-1,-1,-1,-1,-1,-1,-1,-1,-1,-1,-1,-1,-1,-1,-1,-1,-1,-1,-1,-1,-1,-1,-1,-1,-1,-1,-1,-1,-1,-1,-1,-1,-1,-1,-1,-1,-1,-1,-1,-1,-1],"split_conditions":[3.4E1,2.1E1,5.2E1,1.4E1,2.3441502E1,2.9760306E2,1.2081667E0,2.3248336E0,1.9924833E1,2.9760306E2,1.374943E2,5E1,1.3084402E1,4.9E1,9.000001E-1,2.4693481E1,2.4677873E2,6.8E0,3E-1,5.993618E1,2.5894167E0,2E1,2.9168886E1,2.5999994E0,9.000001E-1,1.2429127E1,-4.1085E0,5.3E1,3.3E1,7.2E1,3.9E1,1.3905509E1,2.4E1,9.864942E1,1.6801918E1,1.1264417E1,3.3706667E0,1.9E1,2.9304938E0,9.346143E0,-1.0224999E-1,6.3733345E-1,3.3868463E2,-4.752088E-1,4.1E1,2.6420174E1,2.988217E1,1.7185873E2,2.2E1,9.659814E0,1.8627172E1,7.2E0,3.8E1,1.68943E0,3.450858E2,2.5E1,-2.3716583E0,3.215038E0,6.2E1,6E1,6.8E1,3.5E1,5.5E1,5.123466E-1,-5.069916E-1,-1.6397418E0,-4.2040542E-1,-1.066899E0,-5.2169245E-1,-1.2154174E0,-4.1015828E-1,-2.2399864E-1,-6.513303E-1,-2.071359E0,-6.7986155E-1,-5.706489E-1,1.0699574E0,1.5545323E0,-4.8325294E-1,1.3112161E0,3.736592E-1,-1.9132999E-1,1.128637E0,-1.8699379E0,4.1023728E-2,-1.835241E0,-5.027653E-1,-5.1476188E-2,-1.32145E0,1.893305E0,-6.522008E-1,1.8942351E0,1.1355522E0,-1.2317333E0,1.1881318E0,1.9030969E0,-1.245194E0,-3.653919E-1,2.7360892E0,2.5648696E0,-2.967569E-1,-5.209234E-1,2.762447E0,-1.6377462E0,5.4846096E-1,-2.345089E-1,1.0676618E0,4.775524E-1,1.0454465E-1,3.061973E0,8.536386E-1,5.229031E0,2.0166478E0,2.0901644E0,-9.355111E-1,-5.124982E-1,2.8413885E0],"split_indices":[0,0,0,0,5,6,3,3,3,6,6,1,5,1,4,5,6,4,4,6,3,1,5,4,4,5,3,0,2,0,2,5,1,6,3,3,3,1,0,5,3,3,6,0,2,5,5,6,2,5,5,5,0,0,6,1,0,0,0,1,2,1,0,0,0,0,0,0,0,0,0,0,0,0,0,0,0,0,0,0,0,0,0,0,0,0,0,0,0,0,0,0,0,0,0,0,0,0,0,0,0,0,0,0,0,0,0,0,0,0,0,0,0,0,0,0,0],"split_type":[0,0,0,0,0,0,0,0,0,0,0,0,0,0,0,0,0,0,0,0,0,0,0,0,0,0,0,0,0,0,0,0,0,0,0,0,0,0,0,0,0,0,0,0,0,0,0,0,0,0,0,0,0,0,0,0,0,0,0,0,0,0,0,0,0,0,0,0,0,0,0,0,0,0,0,0,0,0,0,0,0,0,0,0,0,0,0,0,0,0,0,0,0,0,0,0,0,0,0,0,0,0,0,0,0,0,0,0,0,0,0,0,0,0,0,0,0],"sum_hessian":[2.35E3,1.85E3,5E2,1.165E3,6.85E2,3.87E2,1.13E2,5.26E2,6.39E2,5.69E2,1.16E2,3.42E2,4.5E1,9E0,1.04E2,1.34E2,3.92E2,6.15E2,2.4E1,4.82E2,8.7E1,1E1,1.06E2,2.99E2,4.3E1,1.5E1,3E1,5E0,4E0,7.3E1,3.1E1,1.17E2,1.7E1,2.01E2,1.91E2,5.7E2,4.5E1,1.9E1,5E0,5.9E1,4.23E2,5.4E1,3.3E1,1E0,9E0,8.5E1,2.1E1,2.38E2,6.1E1,2.3E1,2E1,1E1,5E0,2E0,2.8E1,2E0,3E0,1E0,3E0,6.1E1,1.2E1,1.6E1,1.5E1,1.4E1,1.03E2,1.5E1,2E0,5.2E1,1.49E2,1.74E2,1.7E1,3.84E2,1.86E2,1.3E1,3.2E1,1.4E1,5E0,4E0,5.5E1,4.6E1,3.77E2,4.3E1,1.1E1,2.1E1,1.2E1,8E0,1E0,5.7E1,2.8E1,1E1,1.1E1,1.02E2,1.36E2,2.3E1,3.8E1,2E0,2.1E1,1.4E1,6E0,2E0,8E0,1E0,4E0,2.3E1,5E0,1E0,1E0,2E0,1E0,4.3E1,1.8E1,9E0,3E0,4E0,1.2E1,1E0,1.4E1],"tree_param":{"num_deleted":"0","num_feature":"7","num_nodes":"117","size_leaf_vector":"1"}},{"base_weights":[3.652667E-2,-9.73449E-1,2.2193282E0,-1.6369313E0,-2.4381982E-1,1.1053288E0,3.892232E0,-1.3232076E0,-2.4092908E0,2.3573278E-1,-1.3575684E0,8.463735E0,8.3087194E-1,5.667214E0,2.755537E0,-2.407071E0,-1.0617851E0,-1.8606318E0,-3.4191422E0,5.997274E-1,-1.0073614E0,-6.2268138E-2,-2.4177964E0,1.0571104E1,3.1896017E0,-3.7646072E0,9.2207336E-1,2.0927916E-1,6.611863E0,3.7093463E0,-1.2422217E0,-2.0933473E0,-1.9142028E0,-3.3328776E0,-9.3139416E-1,3.677813E0,-2.1018636E0,-2.9722698E0,-6.1145434E0,5.0263804E-1,4.1394453E0,6.418958E-1,-2.5120304E0,6.6577945E0,-5.367951E-1,1.555925E0,-2.5809553E0,1.1775033E1,1.0306847E0,4.8507944E-1,1.3261778E0,1.728785E0,-5.255474E-1,-3.655304E0,3.0008597E0,7.919468E0,2.8800335E0,6.194652E0,2.0845435E0,-8.501442E0,4.9300367E-1,-6.745965E-1,1.2431208E0,-1.0710207E0,3.895363E-1,1.187957E0,-2.948613E-1,-4.7213614E-1,1.8279632E0,-5.468581E-1,-1.364152E0,-1.0295032E0,-2.2747846E-1,-4.566708E-1,-1.9264652E0,1.3168623E-1,2.7243066E0,7.248766E-2,3.5786355E0,-9.805292E-1,3.1142175E-1,2.5400085E0,-6.2934095E-1,1.4755719E0,-2.4548079E-1,-4.9788815E-1,-1.1655728E0,8.572781E-1,3.7597542E0,2.9205036E-1,-7.3764615E-2,-4.9812314E-1,6.487886E-1,3.3546948E-1,-6.487766E-1,5.7146734E-1,-2.21172E0,-3.4652826E-1,1.2158246E0,1.3768378E0,3.4518776E0,1.3730212E0,-1.3861108E-1,-1.3498054E0,2.1210365E0,-1.719383E0,9.0368134E-1,-3.0239637E0,1.4537688E-1,1.0338954E0,-6.919623E-1],"categories":[],"categories_nodes":[],"categories_segments":[],"categories_sizes":[],"default_left":[0,0,0,0,0,0,0,0,0,0,0,0,0,0,0,0,0,0,0,0,0,0,0,0,0,0,0,1,0,0,0,0,0,0,0,0,0,0,0,0,0,0,0,0,0,0,0,0,0,0,0,0,0,0,0,0,0,0,0,0,0,0,0,0,0,0,0,0,0,0,0,0,0,0,0,0,0,0,0,0,0,0,0,0,0,0,0,0,0,0,0,0,0,0,0,0,0,0,0,0,0,0,0,0,0,0,0,0,0,0,0],"id":5,"left_children":[1,3,5,7,9,11,13,15,17,19,21,23,25,27,29,31,33,35,37,39,41,43,45,47,49,-1,51,53,55,57,59,61,-1,63,65,67,69,71,73,75,-1,77,79,81,83,-1,85,87,-1,89,-1,91,93,95,97,99,101,103,105,107,109,-1,-1,-1,-1,-1,-1,-1,-1,-1,-1,-1,-1,-1,-1,-1,-1,-1,-1,-1,-1,-1,-1,-1,-1,-1,-1,-1,-1,-1,-1,-1,-1,-1,-1,-1,-1,-1,-1,-1,-1,-1,-1,-1,-1,-1,-1,-1,-1,-1,-1],"loss_changes":[5.1851196E3,7.7802747E2,1.3822266E3,2.0083496E2,4.0997552E2,8.9773285E2,5.8361475E2,1.6773535E2,1.277218E2,2.435857E2,3.1708487E2,1.4411511E2,5.399325E2,5.915376E2,7.024053E2,1.3125037E2,1.4081482E2,2.2016211E2,8.300403E1,5.2613794E2,3.0436597E2,3.3840326E2,1.709541E2,5.404248E1,1.7831123E1,0E0,5.0423587E2,2.0515837E2,4.554077E2,5.8473047E2,4.57661E2,1.14902405E2,0E0,3.319693E1,1.1996521E2,9.838233E1,9.60954E1,7.266559E1,5.7334595E0,2.2218427E2,0E0,2.636682E2,1.7525192E2,1.2862744E2,1.5604369E2,0E0,1.4376147E2,2.4980225E1,0E0,1.3104191E0,0E0,4.1088605E2,4.19513E2,1.793858E2,5.276893E1,8.071636E2,1.5521823E2,5.74823E2,6.771007E2,1.04171814E2,2.559871E2,0E0,0E0,0E0,0E0,0E0,0E0,0E0,0E0,0E0,0E0,0E0,0E0,0E0,0E0,0E0,0E0,0E0,0E0,0E0,0E0,0E0,0E0,0E0,0E0,0E0,0E0,0E0,0E0,0E0,0E0,0E0,0E0,0E0,0E0,0E0,0E0,0E0,0E0,0E0,0E0,0E0,0E0,0E0,0E0,0E0,0E0,0E0,0E0,0E0,0E0],"parents":[2147483647,0,0,1,1,2,2,3,3,4,4,5,5,6,6,7,7,8,8,9,9,10,10,11,11,12,12,13,13,14,14,15,15,16,16,17,17,18,18,19,19,20,20,21,21,22,22,23,23,24,24,26,26,27,27,28,28,29,29,30,30,31,31,33,33,34,34,35,35,36,36,37,37,38,38,39,39,41,41,42,42,43,43,44,44,46,46,47,47,49,49,51,51,52,52,53,53,54,54,55,55,56,56,57,57,58,58,59,59,60,60],"right_children":[2,4,6,8,10,12,14,16,18,20,22,24,26,28,30,32,34,36,38,40,42,44,46,48,50,-1,52,54,56,58,60,62,-1,64,66,68,70,72,74,76,-1,78,80,82,84,-1,86,88,-1,90,-1,92,94,96,98,100,102,104,106,108,110,-1,-1,-1,-1,-1,-1,-1,-1,-1,-1,-1,-1,-1,-1,-1,-1,-1,-1,-1,-1,-1,-1,-1,-1,-1,-1,-1,-1,-1,-1,-1,-1,-1,-1,-1,-1,-1,-1,-1,-1,-1,-1,-1,-1,-1,-1,-1,-1,-1,-1],"split_conditions":[2.8E1,1.7E1,4.1E1,2.8311826E2,2.605944E2,9.107359E0,1.6132463E2,8.578182E1,9.1831665E0,2.1626984E1,2.6373334E0,3E1,9.346143E0,4.578638E1,1.51727495E1,2.436325E1,8E0,1.2324414E1,2.226477E1,5.2E1,1.4E0,1.1E1,9.107359E0,1.731025E1,3.2E1,-3.7646072E0,8.000001E-1,3.4E1,1.9000003E0,3.8E1,2.1E1,5.4E1,-1.9142028E0,6.7000003E0,8.942129E1,3.2224573E2,3.6000001E0,1.9000003E0,9E0,2.1566973E1,4.1394453E0,2.7E1,1.3633164E1,2.7E1,-9.110583E0,1.555925E0,3.0426114E2,-8.381416E0,1.0306847E0,3.4E1,1.3261778E0,8.1320404E1,1.9117262E2,1.7555305E1,1.8583387E-2,1.4275713E1,1.3963792E2,-2.8001664E0,4.4E1,4.6E1,3.6E1,-6.745965E-1,1.2431208E0,-1.0710207E0,3.895363E-1,1.187957E0,-2.948613E-1,-4.7213614E-1,1.8279632E0,-5.468581E-1,-1.364152E0,-1.0295032E0,-2.2747846E-1,-4.566708E-1,-1.9264652E0,1.3168623E-1,2.7243066E0,7.248766E-2,3.5786355E0,-9.805292E-1,3.1142175E-1,2.5400085E0,-6.2934095E-1,1.4755719E0,-2.4548079E-1,-4.9788815E-1,-1.1655728E0,8.572781E-1,3.7597542E0,2.9205036E-1,-7.3764615E-2,-4.9812314E-1,6.487886E-1,3.3546948E-1,-6.487766E-1,5.7146734E-1,-2.21172E0,-3.4652826E-1,1.2158246E0,1.3768378E0,3.4518776E0,1.3730212E0,-1.3861108E-1,-1.3498054E0,2.1210365E0,-1.719383E0,9.0368134E-1,-3.0239637E0,1.4537688E-1,1.0338954E0,-6.919623E-1],"split_indices":[0,0,0,6,6,5,6,6,3,5,3,1,5,6,3,5,0,5,5,1,4,2,5,3,1,0,4,2,4,1,2,2,0,4,6,6,4,4,2,5,0,0,3,0,3,0,6,3,0,0,0,6,6,5,3,5,6,3,0,0,2,0,0,0,0,0,0,0,0,0,0,0,0,0,0,0,0,0,0,0,0,0,0,0,0,0,0,0,0,0,0,0,0,0,0,0,0,0,0,0,0,0,0,0,0,0,0,0,0,0,0],"split_type":[0,0,0,0,0,0,0,0,0,0,0,0,0,0,0,0,0,0,0,0,0,0,0,0,0,0,0,0,0,0,0,0,0,0,0,0,0,0,0,0,0,0,0,0,0,0,0,0,0,0,0,0,0,0,0,0,0,0,0,0,0,0,0,0,0,0,0,0,0,0,0,0,0,0,0,0,0,0,0,0,0,0,0,0,0,0,0,0,0,0,0,0,0,0,0,0,0,0,0,0,0,0,0,0,0,0,0,0,0,0,0],"sum_hessian":[2.35E3,1.607E3,7.43E2,8.41E2,7.66E2,4.47E2,2.96E2,6E2,2.41E2,5.36E2,2.3E2,1.5E1,4.32E2,1.14E2,1.82E2,1.15E2,4.85E2,1.58E2,8.3E1,4.15E2,1.21E2,1.04E2,1.26E2,1E1,5E0,2E0,4.3E2,1.7E1,9.7E1,1.47E2,3.5E1,1.08E2,7E0,2.5E1,4.6E2,6E0,1.52E2,7.3E1,1E1,4.13E2,2E0,5.8E1,6.3E1,6E0,9.8E1,2E0,1.24E2,8E0,2E0,2E0,3E0,2.76E2,1.54E2,7E0,1E1,7.1E1,2.6E1,5.7E1,9E1,6E0,2.9E1,1.06E2,2E0,2.4E1,1E0,4E0,4.56E2,2E0,4E0,1.38E2,1.4E1,6E1,1.3E1,1E0,9E0,4.11E2,2E0,5.7E1,1E0,5.2E1,1.1E1,5E0,1E0,4E0,9.4E1,7.4E1,5E1,1E0,7E0,1E0,1E0,3.1E1,2.45E2,7.7E1,7.7E1,3E0,4E0,2E0,8E0,3.8E1,3.3E1,1.7E1,9E0,4E0,5.3E1,9E0,8.1E1,5E0,1E0,1.4E1,1.5E1],"tree_param":{"num_deleted":"0","num_feature":"7","num_nodes":"111","size_leaf_vector":"1"}},{"base_weights":[3.1377632E-2,-8.666062E-1,1.3152394E0,-3.996527E-1,-1.2287463E0,8.3575004E-1,3.2239456E0,-1.8843294E0,-7.389083E-2,-6.6649306E-1,-1.7736546E0,2.7382335E-1,2.1497688E0,2.5442524E0,6.2390018E0,-9.386121E-1,-2.941447E0,-1.6452621E-1,1.116071E1,-1.4689212E-1,-2.3197126E0,-2.09699E0,-3.187093E-1,2.8222613E0,-2.2416964E-1,3.3229203E0,5.401521E-1,8.515165E0,2.2154188E0,7.507724E0,1.0185988E0,-4.9338916E-1,-1.2526495E0,-3.9208505E0,-7.5200164E-1,-2.0415781E-1,2.912023E0,4.311999E0,2.2842838E-1,-1.6043088E0,1.1603046E-1,1.2074886E-1,-2.722836E0,3.0467193E0,-2.1874468E0,9.0682477E-1,-1.0577581E0,3.766166E0,-4.2132587E0,-3.88252E-1,6.449003E0,2.7422593E0,6.912611E0,-8.235626E-1,4.400719E0,1.4355983E1,-9.1464806E-1,-1.5631788E0,2.3986764E0,1.8989711E0,9.656277E0,1.3936585E0,-9.6463233E-1,-2.3831996E-1,1.4364767E0,-1.2452104E0,5.841112E-1,6.1172545E-1,-6.254634E-1,-3.7494043E-3,-6.4920926E-1,7.941628E-1,-7.7853066E-1,1.1654009E0,2.2314726E-3,-1.2007645E0,8.5685915E-1,-8.624661E-2,-1.0010321E0,1.1368876E-1,1.6764467E0,-5.2433705E-1,-9.4697905E-1,-3.8015884E-1,1.4840347E0,-5.1357865E-1,6.79063E-1,7.3267937E-1,3.7970576E0,3.8633767E-1,-1.931138E0,-5.4034587E-2,-1.5169114E0,-3.780802E-1,2.4906614E0,1.0212178E0,-3.2602698E-1,7.0646343E0,1.3646371E0,1.204936E-1,-1.2455119E0,7.413177E-1,3.6033242E0,5.257401E0,2.5218487E-1,-4.068558E-1,6.149483E-2,2.8576884E0,6.565285E-1,1.1155128E0,-1.8984405E0,3.187939E-1,3.1656268E0,-7.799271E-1,4.611233E-1],"categories":[],"categories_nodes":[],"categories_segments":[],"categories_sizes":[],"default_left":[0,0,0,0,0,0,0,0,0,0,0,0,0,0,1,0,0,0,0,0,0,0,0,0,0,0,0,0,1,1,0,0,0,0,0,0,0,0,0,0,0,0,0,0,0,0,0,0,0,0,0,0,0,0,0,0,0,0,0,1,0,0,0,0,0,0,0,0,0,0,0,0,0,0,0,0,0,0,0,0,0,0,0,0,0,0,0,0,0,0,0,0,0,0,0,0,0,0,0,0,0,0,0,0,0,0,0,0,0,0,0,0,0,0,0],"id":6,"left_children":[1,3,5,7,9,11,13,15,17,19,21,23,25,27,29,31,33,35,37,39,41,43,45,47,49,51,53,55,57,59,61,63,-1,65,67,69,-1,-1,-1,71,73,75,77,79,81,83,85,87,89,91,93,95,97,99,101,103,105,-1,107,109,111,-1,113,-1,-1,-1,-1,-1,-1,-1,-1,-1,-1,-1,-1,-1,-1,-1,-1,-1,-1,-1,-1,-1,-1,-1,-1,-1,-1,-1,-1,-1,-1,-1,-1,-1,-1,-1,-1,-1,-1,-1,-1,-1,-1,-1,-1,-1,-1,-1,-1,-1,-1,-1,-1],"loss_changes":[2.7115774E3,2.33547E2,8.8322327E2,2.929533E2,2.374851E2,5.716576E2,3.81693E2,1.06210175E2,5.089259E2,3.3037982E2,1.8515369E2,6.910254E2,4.3629626E2,2.9528528E2,2.2416602E2,8.2966896E1,1.0641333E2,1.9563275E2,1.2269144E2,1.1284335E2,9.083902E1,1.5695105E2,6.707745E1,6.069043E2,5.0180103E2,2.6035266E2,5.248308E2,4.5375317E2,2.2071216E2,3.1908252E2,6.2025543E1,8.806486E1,0E0,5.5287415E1,6.749418E1,1.8553362E2,0E0,0E0,0E0,1.9642667E2,1.0228232E2,1.6933899E2,1.1715759E2,3.8561893E1,1.2998071E2,2.5219116E2,1.0381912E2,8.989502E2,1.428594E2,4.32426E2,1.6761807E2,3.001825E2,6.0073E2,3.0341498E2,3.521405E2,1.9939844E2,2.2554324E0,0E0,2.0391809E2,1.5824632E2,1.4275256E2,0E0,2.853967E1,0E0,0E0,0E0,0E0,0E0,0E0,0E0,0E0,0E0,0E0,0E0,0E0,0E0,0E0,0E0,0E0,0E0,0E0,0E0,0E0,0E0,0E0,0E0,0E0,0E0,0E0,0E0,0E0,0E0,0E0,0E0,0E0,0E0,0E0,0E0,0E0,0E0,0E0,0E0,0E0,0E0,0E0,0E0,0E0,0E0,0E0,0E0,0E0,0E0,0E0,0E0,0E0],"parents":[2147483647,0,0,1,1,2,2,3,3,4,4,5,5,6,6,7,7,8,8,9,9,10,10,11,11,12,12,13,13,14,14,15,15,16,16,17,17,18,18,19,19,20,20,21,21,22,22,23,23,24,24,25,25,26,26,27,27,28,28,29,29,30,30,31,31,33,33,34,34,35,35,39,39,40,40,41,41,42,42,43,43,44,44,45,45,46,46,47,47,48,48,49,49,50,50,51,51,52,52,53,53,54,54,55,55,56,56,58,58,59,59,60,60,62,62],"right_children":[2,4,6,8,10,12,14,16,18,20,22,24,26,28,30,32,34,36,38,40,42,44,46,48,50,52,54,56,58,60,62,64,-1,66,68,70,-1,-1,-1,72,74,76,78,80,82,84,86,88,90,92,94,96,98,100,102,104,106,-1,108,110,112,-1,114,-1,-1,-1,-1,-1,-1,-1,-1,-1,-1,-1,-1,-1,-1,-1,-1,-1,-1,-1,-1,-1,-1,-1,-1,-1,-1,-1,-1,-1,-1,-1,-1,-1,-1,-1,-1,-1,-1,-1,-1,-1,-1,-1,-1,-1,-1,-1,-1,-1,-1,-1,-1],"split_conditions":[2.4E1,2.207299E2,4.6E1,4.578638E1,5.9331665E0,3.4E1,6.5E1,4.1144176E0,4.5E1,7.0000005E-1,1.70665E1,1.2287555E1,4.3E1,2.4E1,6.8E1,2.3675304E1,8.000001E-1,3.5246925E1,4.9E1,-4.700166E0,1.5629971E1,9.346143E0,2.5338979E2,3.4E1,2.2597748E1,4.1E1,1.51727495E1,1.5000001E0,2.6E1,2.8E1,1.584E1,5.4E1,-1.2526495E0,3.3E1,1.3E1,2.436325E1,2.912023E0,4.311999E0,2.2842838E-1,1.2144331E1,8E0,1.0000001E0,1.1E1,1.7E1,1.3766499E1,2.4094548E2,3.3606522E2,3.9E1,5.370899E1,4.4E1,1.2984975E1,3.8E1,4.2E1,8.301917E0,5.2E1,1.9E1,5.1E1,-1.5631788E0,-3.4751666E0,2.6E1,1.3060834E0,1.3936585E0,8E1,-2.3831996E-1,1.4364767E0,-1.2452104E0,5.841112E-1,6.1172545E-1,-6.254634E-1,-3.7494043E-3,-6.4920926E-1,7.941628E-1,-7.7853066E-1,1.1654009E0,2.2314726E-3,-1.2007645E0,8.5685915E-1,-8.624661E-2,-1.0010321E0,1.1368876E-1,1.6764467E0,-5.2433705E-1,-9.4697905E-1,-3.8015884E-1,1.4840347E0,-5.1357865E-1,6.79063E-1,7.3267937E-1,3.7970576E0,3.8633767E-1,-1.931138E0,-5.4034587E-2,-1.5169114E0,-3.780802E-1,2.4906614E0,1.0212178E0,-3.2602698E-1,7.0646343E0,1.3646371E0,1.204936E-1,-1.2455119E0,7.413177E-1,3.6033242E0,5.257401E0,2.5218487E-1,-4.068558E-1,6.149483E-2,2.8576884E0,6.565285E-1,1.1155128E0,-1.8984405E0,3.187939E-1,3.1656268E0,-7.799271E-1,4.611233E-1],"split_indices":[0,6,0,6,3,2,0,3,1,4,3,5,1,1,2,5,4,5,1,3,5,5,6,1,3,0,3,4,1,2,5,2,0,2,2,5,0,0,0,5,1,4,1,1,3,6,6,0,6,1,5,0,0,3,2,2,0,0,3,2,3,0,0,0,0,0,0,0,0,0,0,0,0,0,0,0,0,0,0,0,0,0,0,0,0,0,0,0,0,0,0,0,0,0,0,0,0,0,0,0,0,0,0,0,0,0,0,0,0,0,0,0,0,0,0],"split_type":[0,0,0,0,0,0,0,0,0,0,0,0,0,0,0,0,0,0,0,0,0,0,0,0,0,0,0,0,0,0,0,0,0,0,0,0,0,0,0,0,0,0,0,0,0,0,0,0,0,0,0,0,0,0,0,0,0,0,0,0,0,0,0,0,0,0,0,0,0,0,0,0,0,0,0,0,0,0,0,0,0,0,0,0,0,0,0,0,0,0,0,0,0,0,0,0,0,0,0,0,0,0,0,0,0,0,0,0,0,0,0,0,0,0,0],"sum_hessian":[2.35E3,1.383E3,9.67E2,6.05E2,7.78E2,7.74E2,1.93E2,1.08E2,4.97E2,3.84E2,3.94E2,5.43E2,2.31E2,1.59E2,3.4E1,5.8E1,5E1,4.94E2,3E0,2.93E2,9.1E1,3.22E2,7.2E1,8.8E1,4.55E2,1.33E2,9.8E1,7E0,1.52E2,2.7E1,7E0,5.2E1,6E0,3.4E1,1.6E1,4.93E2,1E0,2E0,1E0,4.4E1,2.49E2,1.3E1,7.8E1,5E0,3.17E2,2.7E1,4.5E1,7.8E1,1E1,4.45E2,1E1,1.16E2,1.7E1,7.3E1,2.5E1,4E0,3E0,3E0,1.49E2,8E0,1.9E1,2E0,5E0,5E1,2E0,3.3E1,1E0,5E0,1.1E1,4.5E2,4.3E1,8E0,3.6E1,6E0,2.43E2,5E0,8E0,1.6E1,6.2E1,3E0,2E0,2.2E2,9.7E1,1.8E1,9E0,3.8E1,7E0,6.9E1,9E0,3E0,7E0,4.27E2,1.8E1,2E0,8E0,9.9E1,1.7E1,1E0,1.6E1,5.4E1,1.9E1,2.1E1,4E0,3E0,1E0,2E0,1E0,3E0,1.46E2,7E0,1E0,2E0,1.7E1,3E0,2E0],"tree_param":{"num_deleted":"0","num_feature":"7","num_nodes":"115","size_leaf_vector":"1"}},{"base_weights":[3.6499932E-2,-3.1344962E-1,1.7087736E0,-4.4079798E-1,1.5285141E0,-1.1058382E0,2.1797001E0,-9.1332775E-1,-6.2618755E-2,4.866613E0,5.68966E-1,2.2040663E0,-2.9929976E0,3.268201E0,1.0661604E0,-6.008425E-1,-1.2994567E0,5.26063E-2,-2.2806008E0,9.060176E0,1.1551793E0,2.4136475E-1,5.6065574E0,6.476125E0,-1.2516764E0,-5.822986E0,4.749335E-1,2.88548E0,1.2095973E1,-5.6881914E0,1.5126952E0,-6.8456006E-1,3.568078E0,-1.4741669E0,9.163716E-1,5.176663E-1,-6.117302E-1,-7.276648E-1,-7.137593E0,1.2906054E1,3.255623E-1,-2.2943857E0,4.8915424E0,1.4107616E0,-2.068428E0,2.0389702E0,3.516674E0,1.7683595E0,3.2490656E0,-4.2219806E0,1.8974386E0,-7.965633E0,-1.3454816E0,2.2688138E0,-6.370851E0,4.648972E0,1.4776946E0,4.0662146E0,5.02129E-1,-8.022424E0,4.0232086E-1,5.40737E-1,4.834262E0,-2.753529E-1,2.1118906E-1,-7.9220814E-1,1.4022784E0,-6.2449837E-1,-3.032605E-1,-3.3907956E-1,9.622156E-1,-2.0824091E-1,3.3762118E-1,3.943089E-1,-3.32881E-1,1.129238E0,-4.496796E-1,-2.3680544E0,1.7663155E-1,1.2823977E0,4.9527926E0,1.1473981E0,-4.5161322E-1,-8.785307E-1,-1.504221E-2,1.3962422E-1,1.8868049E0,8.514059E-2,2.4422958E0,-1.8221607E0,-2.1118492E-1,8.551632E-1,-1.8109876E-1,1.627834E0,-1.4524155E-2,-1.7784951E0,8.771896E-3,-1.00430205E-1,1.0965855E0,-2.7513814E0,-7.976152E-1,-1.6712056E0,6.911333E-1,1.4488361E0,-7.1311635E-1,-2.2517707E0,-4.4485477E-1,6.204388E-1,2.3613033E0,-1.4351691E0,6.78424E-1,-3.0898345E0,-2.3827E-1,1.0208606E0,-5.1964533E-1,1.9403718E0,2.7507959E-2,2.5232916E0,6.0398376E-1],"categories":[],"categories_nodes":[],"categories_segments":[],"categories_sizes":[],"default_left":[0,0,0,0,0,0,0,0,0,0,0,0,0,0,0,0,0,0,0,0,0,0,0,0,0,0,0,0,0,0,0,0,0,0,0,0,0,0,0,0,0,0,0,0,0,0,0,0,0,0,0,0,0,0,0,0,0,0,0,0,0,0,0,0,0,0,0,0,0,0,0,0,0,0,0,0,0,0,0,0,0,0,0,0,0,0,0,0,0,0,0,0,0,0,0,0,0,0,0,0,0,0,0,0,0,0,0,0,0,0,0,0,0,0,0,0,0,0,0],"id":7,"left_children":[1,3,5,7,9,11,13,15,17,19,21,23,25,27,29,31,33,35,37,39,41,43,45,47,49,51,53,55,57,59,61,63,65,67,69,71,73,75,77,79,81,83,85,87,89,91,-1,93,-1,95,97,99,101,103,105,107,109,-1,-1,111,113,115,117,-1,-1,-1,-1,-1,-1,-1,-1,-1,-1,-1,-1,-1,-1,-1,-1,-1,-1,-1,-1,-1,-1,-1,-1,-1,-1,-1,-1,-1,-1,-1,-1,-1,-1,-1,-1,-1,-1,-1,-1,-1,-1,-1,-1,-1,-1,-1,-1,-1,-1,-1,-1,-1,-1,-1,-1],"loss_changes":[1.3763678E3,4.5691452E2,5.4187866E2,3.2517847E2,4.0081747E2,3.7512946E2,4.195348E2,9.6832825E1,2.5875388E2,4.253296E2,1.6202855E2,3.3289502E2,3.7570535E2,5.5972644E2,5.3339777E2,1.591489E2,1.4110406E2,2.9784158E2,3.719361E2,4.3249756E2,2.1744432E2,2.5681808E2,1.07008194E2,1.8582877E2,1.2961073E2,1.907503E2,2.355036E2,4.151753E2,8.3688354E1,1.5961096E2,5.2684753E2,1.4349432E2,7.415565E1,9.2181885E1,1.3022476E2,4.1835284E2,3.8216153E2,1.4075264E2,7.4733765E1,2.0933826E2,3.779074E1,1.2659832E1,4.656784E1,4.7552505E2,1.706151E2,1.2444223E1,0E0,4.0134552E1,0E0,5.0951416E1,2.8690794E1,6.519122E1,1.3618454E2,1.8992581E2,1.1062424E1,6.0739E2,4.8192175E2,0E0,0E0,1.2348993E2,3.1512617E1,3.4008636E2,3.5639038E2,0E0,0E0,0E0,0E0,0E0,0E0,0E0,0E0,0E0,0E0,0E0,0E0,0E0,0E0,0E0,0E0,0E0,0E0,0E0,0E0,0E0,0E0,0E0,0E0,0E0,0E0,0E0,0E0,0E0,0E0,0E0,0E0,0E0,0E0,0E0,0E0,0E0,0E0,0E0,0E0,0E0,0E0,0E0,0E0,0E0,0E0,0E0,0E0,0E0,0E0,0E0,0E0,0E0,0E0,0E0,0E0],"parents":[2147483647,0,0,1,1,2,2,3,3,4,4,5,5,6,6,7,7,8,8,9,9,10,10,11,11,12,12,13,13,14,14,15,15,16,16,17,17,18,18,19,19,20,20,21,21,22,22,23,23,24,24,25,25,26,26,27,27,28,28,29,29,30,30,31,31,32,32,33,33,34,34,35,35,36,36,37,37,38,38,39,39,40,40,41,41,42,42,43,43,44,44,45,45,47,47,49,49,50,50,51,51,52,52,53,53,54,54,55,55,56,56,59,59,60,60,61,61,62,62],"right_children":[2,4,6,8,10,12,14,16,18,20,22,24,26,28,30,32,34,36,38,40,42,44,46,48,50,52,54,56,58,60,62,64,66,68,70,72,74,76,78,80,82,84,86,88,90,92,-1,94,-1,96,98,100,102,104,106,108,110,-1,-1,112,114,116,118,-1,-1,-1,-1,-1,-1,-1,-1,-1,-1,-1,-1,-1,-1,-1,-1,-1,-1,-1,-1,-1,-1,-1,-1,-1,-1,-1,-1,-1,-1,-1,-1,-1,-1,-1,-1,-1,-1,-1,-1,-1,-1,-1,-1,-1,-1,-1,-1,-1,-1,-1,-1,-1,-1,-1,-1],"split_conditions":[3.7E1,4.4E1,6.3733345E-1,1.7E1,4.6E1,1.3755579E1,8.301917E0,1.835647E1,3.5E1,2.2767969E2,6.5E1,3.3E1,3E1,8.1310835E0,8.94775E0,1.1200001E1,1.70665E1,2.3812042E2,2.8999999E0,3.7999997E0,3.3E1,4.3E1,1.2845666E1,4.6E1,4.1E1,1.8466455E1,-1.0224999E-1,3.8E1,4E-1,6.1E1,5.3E1,1.7298738E1,9E0,2.1566973E1,1.7E1,1.2351665E2,-8.251667E-1,-1.8605832E0,4E1,3.1915004E0,1.5E1,1E-1,2.5712653E2,3.3E1,1.535661E2,7.8E1,3.516674E0,2.8525892E1,3.2490656E0,3.14093E2,1.2324414E1,2.5399998E-1,1.9861992E2,2.1218632E1,5.2E1,4.2165E0,4E1,4.0662146E0,5.02129E-1,2.3640054E2,6.6E1,9.914416E0,1.5228467E2,-2.753529E-1,2.1118906E-1,-7.9220814E-1,1.4022784E0,-6.2449837E-1,-3.032605E-1,-3.3907956E-1,9.622156E-1,-2.0824091E-1,3.3762118E-1,3.943089E-1,-3.32881E-1,1.129238E0,-4.496796E-1,-2.3680544E0,1.7663155E-1,1.2823977E0,4.9527926E0,1.1473981E0,-4.5161322E-1,-8.785307E-1,-1.504221E-2,1.3962422E-1,1.8868049E0,8.514059E-2,2.4422958E0,-1.8221607E0,-2.1118492E-1,8.551632E-1,-1.8109876E-1,1.627834E0,-1.4524155E-2,-1.7784951E0,8.771896E-3,-1.00430205E-1,1.0965855E0,-2.7513814E0,-7.976152E-1,-1.6712056E0,6.911333E-1,1.4488361E0,-7.1311635E-1,-2.2517707E0,-4.4485477E-1,6.204388E-1,2.3613033E0,-1.4351691E0,6.78424E-1,-3.0898345E0,-2.3827E-1,1.0208606E0,-5.1964533E-1,1.9403718E0,2.7507959E-2,2.5232916E0,6.0398376E-1],"split_indices":[0,2,3,0,2,5,3,5,0,6,1,2,2,3,3,4,3,6,4,4,1,1,3,0,2,5,3,1,4,0,0,5,0,5,2,6,3,3,1,3,0,4,6,0,6,1,0,6,0,6,5,3,6,5,0,3,1,0,0,6,0,3,6,0,0,0,0,0,0,0,0,0,0,0,0,0,0,0,0,0,0,0,0,0,0,0,0,0,0,0,0,0,0,0,0,0,0,0,0,0,0,0,0,0,0,0,0,0,0,0,0,0,0,0,0,0,0,0,0],"split_type":[0,0,0,0,0,0,0,0,0,0,0,0,0,0,0,0,0,0,0,0,0,0,0,0,0,0,0,0,0,0,0,0,0,0,0,0,0,0,0,0,0,0,0,0,0,0,0,0,0,0,0,0,0,0,0,0,0,0,0,0,0,0,0,0,0,0,0,0,0,0,0,0,0,0,0,0,0,0,0,0,0,0,0,0,0,0,0,0,0,0,0,0,0,0,0,0,0,0,0,0,0,0,0,0,0,0,0,0,0,0,0,0,0,0,0,0,0,0,0],"sum_hessian":[2.35E3,1.944E3,4.06E2,1.819E3,1.25E2,5.8E1,3.48E2,8.08E2,1.011E3,2.7E1,9.8E1,2.1E1,3.7E1,1.75E2,1.73E2,4.48E2,3.6E2,9.62E2,4.9E1,1.2E1,1.5E1,9.3E1,5E0,9E0,1.2E1,2E1,1.7E1,1.69E2,6E0,1E1,1.63E2,4.4E2,8E0,3.34E2,2.6E1,5.66E2,3.96E2,3.8E1,1.1E1,8E0,4E0,8E0,7E0,6.2E1,3.1E1,4E0,1E0,5E0,4E0,6E0,6E0,1.3E1,7E0,1.4E1,3E0,7.4E1,9.5E1,5E0,1E0,7E0,3E0,1.27E2,3.6E1,3.77E2,6.3E1,1E0,7E0,1.43E2,1.91E2,1.4E1,1.2E1,1.89E2,3.77E2,8.1E1,3.15E2,5E0,3.3E1,1E1,1E0,3E0,5E0,1E0,3E0,6E0,2E0,2E0,5E0,5.4E1,8E0,7E0,2.4E1,3E0,1E0,1E0,4E0,4E0,2E0,3E0,3E0,1E1,3E0,3E0,4E0,9E0,5E0,2E0,1E0,4.2E1,3.2E1,1E1,8.5E1,5E0,2E0,1E0,2E0,8E0,1.19E2,1.5E1,2.1E1],"tree_param":{"num_deleted":"0","num_feature":"7","num_nodes":"119","size_leaf_vector":"1"}},{"base_weights":[3.3346362E-2,-4.450525E-1,7.173037E-1,-8.311692E-2,-7.0838E-1,8.985564E-1,-1.5852635E0,-2.0019977E-1,2.5428638E0,-2.4314709E0,-4.9772644E-1,8.2992667E-1,8.429875E0,-4.1710916E0,9.6292086E-2,-2.8022197E-1,3.4774992E0,3.1916445E-1,6.4606442E0,-1.4578748E0,-3.9062567E0,-1.463043E-1,-1.1839925E0,3.8450537E0,7.204042E-1,5.2999496E-1,1.3063805E1,-9.0348125E-1,-5.9362373E0,2.9542596E0,-1.9959261E0,9.005181E-1,-5.2927667E-1,1.4577891E0,2.7152102E0,1.1679826E0,-1.2093943E0,-9.5350784E-1,9.668696E0,-1.9956424E0,4.211377E0,-5.360077E0,-1.446508E0,-1.5093048E0,2.7463886E-1,-1.6655169E0,6.520207E-1,5.8379064E0,-9.237272E-1,1.8450613E-1,1.4481328E0,9.447539E-1,-4.1783795E-1,-2.4194527E-2,4.911024E0,-2.3227718E0,1.9934138E0,-6.6935534E0,8.152962E-2,9.841066E0,-2.082474E-1,-4.051499E0,3.1355503E0,4.429766E-1,-6.216364E-1,-1.7683692E-1,1.2187159E0,8.8608795E-1,-9.051121E-1,7.9559994E-1,-1.3860974E-1,3.6580062E0,6.7141116E-1,-9.891942E-1,-2.8180566E-1,-9.455138E-2,2.2002401E0,-2.350061E0,-1.0691428E0,-1.1316081E0,2.3074037E-1,1.7176468E-2,-7.041055E-1,7.9486316E-1,6.3463883E-3,-5.388216E-1,1.0729355E0,4.2326704E-1,-7.8012985E-1,5.903774E-1,2.3726275E0,-2.031249E0,4.153207E-1,1.8021248E-1,-7.0887256E-1,-5.6512195E-1,5.0959915E-1,-1.3805468E0,2.62993E-1,-1.216516E0,-2.8519855E0,3.742361E-2,-7.3528296E-4,8.437191E-1,3.2052963E0,-1.1180733E0,8.689843E-1,-2.8983028E0,-7.18771E-1,1.3529203E0,-1.9740029E-1],"categories":[],"categories_nodes":[],"categories_segments":[],"categories_sizes":[],"default_left":[0,0,0,0,0,0,0,0,0,0,0,0,0,0,0,0,0,0,0,0,0,0,0,0,1,0,0,0,0,0,0,0,0,0,0,0,0,0,0,0,0,0,0,0,0,0,0,0,0,0,0,0,0,0,0,0,0,0,0,0,0,0,0,0,0,0,0,0,0,0,0,0,0,0,0,0,0,0,0,0,0,0,0,0,0,0,0,0,0,0,0,0,0,0,0,0,0,0,0,0,0,0,0,0,0,0,0,0,0,0,0],"id":8,"left_children":[1,3,5,7,9,11,13,15,17,19,21,23,25,27,29,31,33,35,37,39,41,43,45,47,49,51,53,55,57,59,61,63,65,67,-1,69,-1,-1,71,73,75,77,79,81,83,85,87,89,91,93,95,-1,-1,-1,-1,97,-1,99,101,103,105,107,109,-1,-1,-1,-1,-1,-1,-1,-1,-1,-1,-1,-1,-1,-1,-1,-1,-1,-1,-1,-1,-1,-1,-1,-1,-1,-1,-1,-1,-1,-1,-1,-1,-1,-1,-1,-1,-1,-1,-1,-1,-1,-1,-1,-1,-1,-1,-1,-1],"loss_changes":[7.695768E2,1.318468E2,4.0541605E2,1.8006416E2,2.89533E2,4.5715533E2,3.0912482E2,1.6578111E2,2.1573715E2,1.19223694E2,1.7226266E2,2.9145978E2,2.8593616E2,1.5613538E2,2.689941E2,1.6192044E2,1.2188097E2,6.748551E1,3.0903244E2,1.7303639E2,1.1383179E2,2.7237E2,2.1503458E2,3.0000037E2,3.3551276E2,2.45307E1,2.1861621E2,1.3327803E2,8.2578125E1,4.1586124E2,2.8695493E2,1.6745486E2,1.27846176E2,7.5847374E1,0E0,3.7509865E1,0E0,0E0,1.0402985E2,6.5649796E1,7.298805E1,6.538562E1,7.503645E1,1.4711514E2,2.184703E2,1.378216E2,1.2954646E2,1.6074768E2,1.4433228E2,5.283584E2,3.0787897E2,0E0,0E0,0E0,0E0,7.695046E1,0E0,8.020642E1,1.1193594E-2,5.5132446E0,1.6374492E2,1.5330771E2,4.4671707E1,0E0,0E0,0E0,0E0,0E0,0E0,0E0,0E0,0E0,0E0,0E0,0E0,0E0,0E0,0E0,0E0,0E0,0E0,0E0,0E0,0E0,0E0,0E0,0E0,0E0,0E0,0E0,0E0,0E0,0E0,0E0,0E0,0E0,0E0,0E0,0E0,0E0,0E0,0E0,0E0,0E0,0E0,0E0,0E0,0E0,0E0,0E0,0E0],"parents":[2147483647,0,0,1,1,2,2,3,3,4,4,5,5,6,6,7,7,8,8,9,9,10,10,11,11,12,12,13,13,14,14,15,15,16,16,17,17,18,18,19,19,20,20,21,21,22,22,23,23,24,24,25,25,26,26,27,27,28,28,29,29,30,30,31,31,32,32,33,33,35,35,38,38,39,39,40,40,41,41,42,42,43,43,44,44,45,45,46,46,47,47,48,48,49,49,50,50,55,55,57,57,58,58,59,59,60,60,61,61,62,62],"right_children":[2,4,6,8,10,12,14,16,18,20,22,24,26,28,30,32,34,36,38,40,42,44,46,48,50,52,54,56,58,60,62,64,66,68,-1,70,-1,-1,72,74,76,78,80,82,84,86,88,90,92,94,96,-1,-1,-1,-1,98,-1,100,102,104,106,108,110,-1,-1,-1,-1,-1,-1,-1,-1,-1,-1,-1,-1,-1,-1,-1,-1,-1,-1,-1,-1,-1,-1,-1,-1,-1,-1,-1,-1,-1,-1,-1,-1,-1,-1,-1,-1,-1,-1,-1,-1,-1,-1,-1,-1,-1,-1,-1,-1],"split_conditions":[2.4E1,1.6375053E1,2.628E1,1.6179985E1,1.7076298E1,2.5812277E1,2.8515089E1,1.1200001E1,1.7E1,1.1422751E1,2.693013E2,9.107359E0,1.3E1,4.5685835E0,2.246E2,1.8583387E-2,2E1,2.5E1,1.5E1,1.0062335E1,1.6801918E1,2.6373334E0,2.8E1,3.4E1,3.1E1,2.8E1,2.5E1,2.8082308E1,1.6408169E1,2.2E1,4E1,4E-1,5.6E1,1.5E1,2.7152102E0,1.624394E1,-1.2093943E0,-9.5350784E-1,1.7851917E1,2.3812042E2,9E0,1.919893E2,1E-1,4E-1,1.7654688E1,2.3E1,1.2000002E0,1.4857056E2,-1.7105832E0,3.8E1,4.7720634E1,9.447539E-1,-4.1783795E-1,-2.4194527E-2,4.911024E0,3E1,1.9934138E0,3.1E1,3.6E1,1.3E1,1.872901E2,2.3119852E2,5.3E1,4.429766E-1,-6.216364E-1,-1.7683692E-1,1.2187159E0,8.8608795E-1,-9.051121E-1,7.9559994E-1,-1.3860974E-1,3.6580062E0,6.7141116E-1,-9.891942E-1,-2.8180566E-1,-9.455138E-2,2.2002401E0,-2.350061E0,-1.0691428E0,-1.1316081E0,2.3074037E-1,1.7176468E-2,-7.041055E-1,7.9486316E-1,6.3463883E-3,-5.388216E-1,1.0729355E0,4.2326704E-1,-7.8012985E-1,5.903774E-1,2.3726275E0,-2.031249E0,4.153207E-1,1.8021248E-1,-7.0887256E-1,-5.6512195E-1,5.0959915E-1,-1.3805468E0,2.62993E-1,-1.216516E0,-2.8519855E0,3.742361E-2,-7.3528296E-4,8.437191E-1,3.2052963E0,-1.1180733E0,8.689843E-1,-2.8983028E0,-7.18771E-1,1.3529203E0,-1.9740029E-1],"split_indices":[0,5,5,5,5,5,5,4,0,3,6,5,2,3,6,3,0,2,2,3,3,3,2,2,2,0,0,5,3,1,0,4,2,1,0,5,0,0,3,6,2,6,4,4,5,0,4,6,3,1,6,0,0,0,0,2,0,0,0,2,6,6,1,0,0,0,0,0,0,0,0,0,0,0,0,0,0,0,0,0,0,0,0,0,0,0,0,0,0,0,0,0,0,0,0,0,0,0,0,0,0,0,0,0,0,0,0,0,0,0,0],"split_type":[0,0,0,0,0,0,0,0,0,0,0,0,0,0,0,0,0,0,0,0,0,0,0,0,0,0,0,0,0,0,0,0,0,0,0,0,0,0,0,0,0,0,0,0,0,0,0,0,0,0,0,0,0,0,0,0,0,0,0,0,0,0,0,0,0,0,0,0,0,0,0,0,0,0,0,0,0,0,0,0,0,0,0,0,0,0,0,0,0,0,0,0,0,0,0,0,0,0,0,0,0,0,0,0,0,0,0,0,0,0,0],"sum_hessian":[2.35E3,1.383E3,9.67E2,5.83E2,8E2,8.97E2,7E1,5.59E2,2.4E1,8.6E1,7.14E2,8.9E2,7E0,2.7E1,4.3E1,5.48E2,1.1E1,1.6E1,8E0,5.3E1,3.3E1,4.73E2,2.41E2,3E1,8.6E2,3E0,4E0,1E1,1.7E1,1.8E1,2.5E1,9.5E1,4.53E2,9E0,2E0,1.4E1,2E0,2E0,6E0,4.9E1,4E0,2E1,1.3E1,1.11E2,3.62E2,1.91E2,5E1,2.1E1,9E0,4.96E2,3.64E2,1E0,2E0,1E0,3E0,9E0,1E0,1.5E1,2E0,5E0,1.3E1,1.8E1,7E0,8E1,1.5E1,4.48E2,5E0,7E0,2E0,7E0,7E0,4E0,2E0,2.1E1,2.8E1,2E0,2E0,7E0,1.3E1,6E0,7E0,3.9E1,7.2E1,3.4E1,3.28E2,1.87E2,4E0,4.1E1,9E0,8E0,1.3E1,2E0,7E0,4.27E2,6.9E1,2.5E1,3.39E2,5E0,4E0,9E0,6E0,1E0,1E0,1E0,4E0,6E0,7E0,3E0,1.5E1,5E0,2E0],"tree_param":{"num_deleted":"0","num_feature":"7","num_nodes":"111","size_leaf_vector":"1"}},{"base_weights":[2.6553074E-2,-1.8175079E-1,1.0219449E0,-4.8347916E-2,-8.3446985E-1,-1.0668138E0,1.3721306E0,-1.1480633E0,5.2671418E-2,-5.2394897E-1,-2.281672E0,1.3086954E0,-2.4140346E0,2.8914566E0,1.2483555E0,-2.6757472E0,-6.7154944E-1,1.0427932E-1,-2.0824516E0,1.0907253E0,-7.738182E-1,-4.9862003E0,2.3472995E-1,4.2380013E0,-1.0452856E0,-4.233226E0,-1.5753174E-1,1.5189502E0,-1.5415058E0,-3.43486E0,3.0948877E-2,1.514446E0,-1.6077698E0,8.156197E-2,6.6396503E0,-4.1871123E0,2.8901823E0,3.490621E0,-1.1237172E0,-9.428075E-1,1.009253E0,-3.739044E0,-7.2036366E0,-2.8012085E0,1.6040325E0,1.1100413E0,2.1431859E0,-2.3391302E0,2.4506474E0,-6.4707484E0,-1.1248766E0,2.1356347E0,-4.0661697E0,2.5672295E0,6.871436E-1,-3.5010462E0,7.820737E-1,-7.1813494E-1,-1.5059063E0,6.7231053E-1,-8.2181877E-1,1.4065124E-1,2.6149492E0,-3.4497425E-1,-1.9815444E0,9.890381E-2,-1.1107455E-1,-2.921269E-1,2.6359324E0,-1.69342E0,1.1023371E-1,2.304763E0,-7.151627E-1,3.2718042E-1,1.3799242E0,-4.9742436E-1,4.2847782E-1,-9.427112E-2,-4.555602E-1,5.6086738E-2,2.61828E0,-1.5080142E0,-3.5376006E-1,-2.3683128E0,-2.5165874E-1,-1.0495344E0,-2.450371E-3,7.726248E-1,-2.5362593E-1,1.2951021E0,-1.1842599E-1,1.3253632E-1,-9.26875E-1,1.2582837E-1,8.963734E-1,-4.206007E-1,-2.0412266E0,-1.1435648E0,1.9246297E0,2.305636E0,-1.7047316E-1,-1.6162492E0,5.7926905E-1,-6.855615E-2,1.1857593E0,-9.477342E-1,3.4273133E-1,5.1856977E-1,-1.9532113E0,6.237293E-1,-4.529935E-1],"categories":[],"categories_nodes":[],"categories_segments":[],"categories_sizes":[],"default_left":[0,0,0,0,0,0,0,0,0,0,0,0,0,0,0,0,0,0,0,0,0,0,0,0,0,0,0,0,0,0,0,0,0,0,0,0,0,0,0,0,0,0,0,0,0,0,0,0,0,0,0,0,0,0,0,0,0,0,0,0,0,0,0,0,0,0,0,0,0,0,0,0,0,0,0,0,0,0,0,0,0,0,0,0,0,0,0,0,0,0,0,0,0,0,0,0,0,0,0,0,0,0,0,0,0,0,0,0,0,0,0],"id":9,"left_children":[1,3,5,7,9,11,13,15,17,19,21,23,25,-1,27,29,31,33,35,37,39,41,43,45,47,49,51,53,55,57,59,61,63,65,67,69,71,73,75,77,79,81,83,85,87,89,-1,91,93,95,97,99,101,103,105,107,109,-1,-1,-1,-1,-1,-1,-1,-1,-1,-1,-1,-1,-1,-1,-1,-1,-1,-1,-1,-1,-1,-1,-1,-1,-1,-1,-1,-1,-1,-1,-1,-1,-1,-1,-1,-1,-1,-1,-1,-1,-1,-1,-1,-1,-1,-1,-1,-1,-1,-1,-1,-1,-1,-1],"loss_changes":[4.8765134E2,1.6931976E2,2.9916537E2,1.7958597E2,1.4710204E2,1.9197903E2,3.4504126E2,9.720599E1,1.6340741E2,1.1098787E2,3.958999E2,1.5613158E2,1.5532355E2,0E0,2.627895E2,6.585629E1,2.1732509E2,2.1428918E2,3.7840125E2,2.0055641E2,7.2364365E1,5.0498962E1,1.333639E2,8.296695E1,6.4533905E1,1.3877625E2,1.7002069E2,2.729051E2,1.4388567E2,2.9232147E1,5.512068E1,2.3689023E2,1.6172238E2,1.618853E2,9.02778E1,1.6804465E2,2.9634128E2,4.2898163E1,2.9641863E1,7.805179E1,1.316506E2,5.9997192E1,3.2945312E1,1.9445595E1,5.4523167E1,3.0659103E1,0E0,2.2234413E1,3.111988E0,1.0736084E1,2.2706343E2,1.8443962E2,6.5871315E1,5.392442E2,3.135676E2,2.7882303E2,4.7732082E1,0E0,0E0,0E0,0E0,0E0,0E0,0E0,0E0,0E0,0E0,0E0,0E0,0E0,0E0,0E0,0E0,0E0,0E0,0E0,0E0,0E0,0E0,0E0,0E0,0E0,0E0,0E0,0E0,0E0,0E0,0E0,0E0,0E0,0E0,0E0,0E0,0E0,0E0,0E0,0E0,0E0,0E0,0E0,0E0,0E0,0E0,0E0,0E0,0E0,0E0,0E0,0E0,0E0,0E0],"parents":[2147483647,0,0,1,1,2,2,3,3,4,4,5,5,6,6,7,7,8,8,9,9,10,10,11,11,12,12,14,14,15,15,16,16,17,17,18,18,19,19,20,20,21,21,22,22,23,23,24,24,25,25,26,26,27,27,28,28,29,29,30,30,31,31,32,32,33,33,34,34,35,35,36,36,37,37,38,38,39,39,40,40,41,41,42,42,43,43,44,44,45,45,47,47,48,48,49,49,50,50,51,51,52,52,53,53,54,54,55,55,56,56],"right_children":[2,4,6,8,10,12,14,16,18,20,22,24,26,-1,28,30,32,34,36,38,40,42,44,46,48,50,52,54,56,58,60,62,64,66,68,70,72,74,76,78,80,82,84,86,88,90,-1,92,94,96,98,100,102,104,106,108,110,-1,-1,-1,-1,-1,-1,-1,-1,-1,-1,-1,-1,-1,-1,-1,-1,-1,-1,-1,-1,-1,-1,-1,-1,-1,-1,-1,-1,-1,-1,-1,-1,-1,-1,-1,-1,-1,-1,-1,-1,-1,-1,-1,-1,-1,-1,-1,-1,-1,-1,-1,-1,-1,-1],"split_conditions":[3.7E1,2.998407E2,6.3733345E-1,1E1,2.9E1,1.3755579E1,1.5E1,8.942129E1,4.9E1,1.3324863E1,3.6E1,3.3E1,3E1,2.8914566E0,2.4193098E1,1.1422751E1,1.9917561E2,4.8E1,3.3999999E0,8.826917E0,2.5E1,2.7E1,1.9E1,4.6E1,1.2964998E1,9.000001E-1,1.6000001E0,3.9E1,4.6E1,1.4E1,1.5966498E1,1.9686177E2,2.8E1,9E-1,1.2E1,5.6E1,6.3E0,1.4E1,1.7554E1,1.5E1,3.5253043E2,2.7E1,4E-1,4.3E1,4E-1,2.8525892E1,2.1431859E0,-4.700166E0,4E1,1.2351665E2,2.207299E2,1.7026896E1,5.1E1,1.4383114E1,4.1E1,5.0852504E0,5.3E1,-7.1813494E-1,-1.5059063E0,6.7231053E-1,-8.2181877E-1,1.4065124E-1,2.6149492E0,-3.4497425E-1,-1.9815444E0,9.890381E-2,-1.1107455E-1,-2.921269E-1,2.6359324E0,-1.69342E0,1.1023371E-1,2.304763E0,-7.151627E-1,3.2718042E-1,1.3799242E0,-4.9742436E-1,4.2847782E-1,-9.427112E-2,-4.555602E-1,5.6086738E-2,2.61828E0,-1.5080142E0,-3.5376006E-1,-2.3683128E0,-2.5165874E-1,-1.0495344E0,-2.450371E-3,7.726248E-1,-2.5362593E-1,1.2951021E0,-1.1842599E-1,1.3253632E-1,-9.26875E-1,1.2582837E-1,8.963734E-1,-4.206007E-1,-2.0412266E0,-1.1435648E0,1.9246297E0,2.305636E0,-1.7047316E-1,-1.6162492E0,5.7926905E-1,-6.855615E-2,1.1857593E0,-9.477342E-1,3.4273133E-1,5.1856977E-1,-1.9532113E0,6.237293E-1,-4.529935E-1],"split_indices":[0,6,3,2,1,5,1,6,1,5,2,2,2,0,5,3,6,1,4,3,1,0,0,0,5,4,4,1,0,0,3,6,0,4,0,2,4,0,3,1,6,2,4,1,4,6,0,3,0,6,6,5,2,5,1,3,1,0,0,0,0,0,0,0,0,0,0,0,0,0,0,0,0,0,0,0,0,0,0,0,0,0,0,0,0,0,0,0,0,0,0,0,0,0,0,0,0,0,0,0,0,0,0,0,0,0,0,0,0,0,0],"split_type":[0,0,0,0,0,0,0,0,0,0,0,0,0,0,0,0,0,0,0,0,0,0,0,0,0,0,0,0,0,0,0,0,0,0,0,0,0,0,0,0,0,0,0,0,0,0,0,0,0,0,0,0,0,0,0,0,0,0,0,0,0,0,0,0,0,0,0,0,0,0,0,0,0,0,0,0,0,0,0,0,0,0,0,0,0,0,0,0,0,0,0,0,0,0,0,0,0,0,0,0,0,0,0,0,0,0,0,0,0,0,0],"sum_hessian":[2.35E3,1.944E3,4.06E2,1.615E3,3.29E2,5.8E1,3.48E2,1.35E2,1.48E3,2.72E2,5.7E1,2.1E1,3.7E1,4E0,3.44E2,3.1E1,1.04E2,1.446E3,3.4E1,3.6E1,2.36E2,2.7E1,3E1,9E0,1.2E1,2E1,1.7E1,3.14E2,3E1,2.4E1,7E0,3.1E1,7.3E1,1.442E3,4E0,2.4E1,1E1,1.7E1,1.9E1,2.16E2,2E1,1.9E1,8E0,9E0,2.1E1,5E0,4E0,9E0,3E0,1.1E1,9E0,1.1E1,6E0,1.38E2,1.76E2,1.6E1,1.4E1,1.6E1,8E0,4E0,3E0,2.8E1,3E0,6.8E1,5E0,9.31E2,5.11E2,1E0,3E0,1.8E1,6E0,5E0,5E0,6E0,1.1E1,1.6E1,3E0,1.04E2,1.12E2,1.9E1,1E0,1.2E1,7E0,7E0,1E0,7E0,2E0,1.5E1,6E0,1E0,4E0,2E0,7E0,1E0,2E0,1E0,1E1,7E0,2E0,3E0,8E0,5E0,1E0,4.6E1,9.2E1,1.8E1,1.58E2,6E0,1E1,9E0,5E0],"tree_param":{"num_deleted":"0","num_feature":"7","num_nodes":"111","size_leaf_vector":"1"}},{"base_weights":[2.0393437E-2,-6.788391E-2,1.458645E0,1.5137684E-1,-4.3350065E-1,2.4068613E0,-1.1937479E-1,-1.2641973E0,4.3853468E-1,1.2083814E0,-7.7363944E-1,6.348631E0,1.5401937E0,-1.1417861E0,3.79523E0,2.4559388E0,-1.4763486E0,2.4331698E0,2.530112E-1,-2.066661E0,2.456394E0,-6.473934E0,-7.056395E-1,-1.0847079E0,1.0173771E1,3.4446304E0,-5.1707363E-1,3.4941587E0,-2.5120182E0,-1.2638346E0,5.017309E0,4.509595E0,-6.915925E-1,-9.9546415E-1,-3.345706E0,9.698268E-1,4.71819E0,9.8090416E-1,-1.8168776E-1,-1.368549E0,-6.6797333E0,1.5892694E0,6.5110297E0,-3.3422863E0,9.783244E-1,-8.196449E-1,1.9864749E0,6.466538E-1,-1.4612274E0,-4.0696108E-1,1.1605642E1,-4.5369844E0,4.5495834E0,2.7998874E0,-2.3693962E0,5.8322115E0,-1.1716104E0,-1.017107E1,-1.1048709E0,5.959922E0,2.4937172E-1,-1.5465747E-1,1.5903348E0,-7.115688E-1,5.338028E-1,-1.495624E-1,-1.1644131E0,-3.0684102E0,-6.689143E-1,1.0216292E0,-4.0315768E-1,1.7825159E0,3.4654237E-2,1.832485E-1,1.3963244E0,-7.863497E-2,9.914846E-1,-8.609343E-1,2.0620576E-1,-5.750985E-1,-2.7647681E0,6.832203E-2,9.550119E-1,-1.1875043E0,3.2526605E0,7.493162E-1,-5.369797E-1,-1.2197539E-1,-5.06072E-1,1.5140434E-2,1.3690835E0,-1.7665386E-2,5.2032113E-1,3.684159E0,9.3098146E-1,-1.931583E0,4.6042788E-1,2.4103882E0,2.3907496E-1,-6.0630802E-2,1.4104183E0,-2.0369852E0,2.872155E-1,1.9036669E0,3.3581972E-1,-8.708556E-1,-3.3787234E0,-1.344223E0,3.6212772E-1,2.6071474E-1,1.9689119E0],"categories":[],"categories_nodes":[],"categories_segments":[],"categories_sizes":[],"default_left":[0,0,0,0,0,0,0,0,0,0,0,0,0,0,0,0,0,0,0,0,0,0,0,0,0,0,0,0,0,0,0,0,0,0,0,0,0,0,0,0,0,0,0,0,0,0,0,0,0,0,0,0,0,0,0,0,0,0,0,0,0,0,0,0,0,0,0,0,0,0,0,0,0,0,0,0,0,0,0,0,0,0,0,0,0,0,0,0,0,0,0,0,0,0,0,0,0,0,0,0,0,0,0,0,0,0,0,0,0,0,0],"id":10,"left_children":[1,3,5,7,9,11,13,15,17,19,21,23,25,27,29,31,33,35,37,39,41,43,45,47,49,51,53,55,57,-1,59,61,63,65,67,69,71,73,75,77,79,81,83,-1,85,87,89,91,-1,-1,93,95,97,99,101,103,-1,105,107,109,-1,-1,-1,-1,-1,-1,-1,-1,-1,-1,-1,-1,-1,-1,-1,-1,-1,-1,-1,-1,-1,-1,-1,-1,-1,-1,-1,-1,-1,-1,-1,-1,-1,-1,-1,-1,-1,-1,-1,-1,-1,-1,-1,-1,-1,-1,-1,-1,-1,-1,-1],"loss_changes":[2.985938E2,1.7771216E2,2.037847E2,5.63954E2,4.650216E2,2.8059927E2,2.1245482E2,1.88306E2,4.2605396E2,5.895595E2,2.6250195E2,4.37539E2,2.7995453E2,2.755749E2,1.287875E2,8.715011E1,1.9623529E2,3.2311346E2,3.3431174E2,1.19676056E2,3.553031E2,2.8913818E2,2.1094467E2,4.2479824E1,1.8084265E2,3.469558E2,2.2167693E2,1.9578171E2,3.4441693E2,0E0,3.4504303E1,3.4552734E1,2.9131939E1,2.5333047E2,3.228223E2,3.4832492E2,2.1331104E2,5.341505E2,1.8650827E2,1.1308242E2,4.272853E1,1.8810146E2,8.5912134E2,0E0,2.1295067E1,2.3395563E2,1.3947162E2,3.9393759E0,0E0,0E0,1.3533569E1,6.761264E1,4.2517786E2,7.5158104E1,3.4474356E2,1.225119E1,0E0,6.967407E0,2.3175058E2,1.8859558E1,0E0,0E0,0E0,0E0,0E0,0E0,0E0,0E0,0E0,0E0,0E0,0E0,0E0,0E0,0E0,0E0,0E0,0E0,0E0,0E0,0E0,0E0,0E0,0E0,0E0,0E0,0E0,0E0,0E0,0E0,0E0,0E0,0E0,0E0,0E0,0E0,0E0,0E0,0E0,0E0,0E0,0E0,0E0,0E0,0E0,0E0,0E0,0E0,0E0,0E0,0E0],"parents":[2147483647,0,0,1,1,2,2,3,3,4,4,5,5,6,6,7,7,8,8,9,9,10,10,11,11,12,12,13,13,14,14,15,15,16,16,17,17,18,18,19,19,20,20,21,21,22,22,23,23,24,24,25,25,26,26,27,27,28,28,30,30,31,31,32,32,33,33,34,34,35,35,36,36,37,37,38,38,39,39,40,40,41,41,42,42,44,44,45,45,46,46,47,47,50,50,51,51,52,52,53,53,54,54,55,55,57,57,58,58,59,59],"right_children":[2,4,6,8,10,12,14,16,18,20,22,24,26,28,30,32,34,36,38,40,42,44,46,48,50,52,54,56,58,-1,60,62,64,66,68,70,72,74,76,78,80,82,84,-1,86,88,90,92,-1,-1,94,96,98,100,102,104,-1,106,108,110,-1,-1,-1,-1,-1,-1,-1,-1,-1,-1,-1,-1,-1,-1,-1,-1,-1,-1,-1,-1,-1,-1,-1,-1,-1,-1,-1,-1,-1,-1,-1,-1,-1,-1,-1,-1,-1,-1,-1,-1,-1,-1,-1,-1,-1,-1,-1,-1,-1,-1,-1],"split_conditions":[5E1,1.1068584E1,1.9861992E2,1.06957054E2,1.1460728E2,3.5E1,5.9E1,9.449572E0,1.1901798E1,4.3674377E1,1.2009584E2,1.02034836E2,4E-1,1.3324863E1,1.0086427E1,3E1,3E1,3E1,2.3812042E2,3.1E1,3.3E1,1E-1,2.2024832E1,3.2E1,9E0,1.0261579E1,5.583166E0,3.4E1,1.5484185E1,-1.2638346E0,6.6E1,7E0,3.4E1,8.419464E1,3.1E1,9.748334E-1,2.951699E2,4.4E1,4.6E1,4E-1,3.5E1,2E-1,1.3237038E1,-3.3422863E0,2.1E1,2.5E1,1E-1,5.4E1,-1.4612274E0,-4.0696108E-1,3.9E1,6.1E1,1.6595179E1,4.3E1,3.8E1,6.5E1,-1.1716104E0,5.2E1,2.7E1,5E1,2.4937172E-1,-1.5465747E-1,1.5903348E0,-7.115688E-1,5.338028E-1,-1.495624E-1,-1.1644131E0,-3.0684102E0,-6.689143E-1,1.0216292E0,-4.0315768E-1,1.7825159E0,3.4654237E-2,1.832485E-1,1.3963244E0,-7.863497E-2,9.914846E-1,-8.609343E-1,2.0620576E-1,-5.750985E-1,-2.7647681E0,6.832203E-2,9.550119E-1,-1.1875043E0,3.2526605E0,7.493162E-1,-5.369797E-1,-1.2197539E-1,-5.06072E-1,1.5140434E-2,1.3690835E0,-1.7665386E-2,5.2032113E-1,3.684159E0,9.3098146E-1,-1.931583E0,4.6042788E-1,2.4103882E0,2.3907496E-1,-6.0630802E-2,1.4104183E0,-2.0369852E0,2.872155E-1,1.9036669E0,3.3581972E-1,-8.708556E-1,-3.3787234E0,-1.344223E0,3.6212772E-1,2.6071474E-1,1.9689119E0],"split_indices":[0,3,6,6,6,1,2,5,5,6,6,6,4,5,5,1,0,0,6,1,2,4,3,1,2,5,3,2,5,0,0,0,2,6,0,3,6,2,0,4,2,4,5,0,0,1,4,0,0,0,2,0,5,1,2,0,0,0,2,1,0,0,0,0,0,0,0,0,0,0,0,0,0,0,0,0,0,0,0,0,0,0,0,0,0,0,0,0,0,0,0,0,0,0,0,0,0,0,0,0,0,0,0,0,0,0,0,0,0,0,0],"split_type":[0,0,0,0,0,0,0,0,0,0,0,0,0,0,0,0,0,0,0,0,0,0,0,0,0,0,0,0,0,0,0,0,0,0,0,0,0,0,0,0,0,0,0,0,0,0,0,0,0,0,0,0,0,0,0,0,0,0,0,0,0,0,0,0,0,0,0,0,0,0,0,0,0,0,0,0,0,0,0,0,0,0,0,0,0,0,0,0,0,0,0,0,0,0,0,0,0,0,0,0,0,0,0,0,0,0,0,0,0,0,0],"sum_hessian":[2.35E3,2.215E3,1.35E2,1.385E3,8.3E2,8.4E1,5.1E1,2.33E2,1.152E3,1.42E2,6.88E2,1.4E1,7E1,4.1E1,1E1,1.2E1,2.21E2,9.7E1,1.055E3,3.9E1,1.03E2,7E0,6.81E2,5E0,9E0,3.6E1,3.4E1,9E0,3.2E1,1E0,9E0,7E0,5E0,1.77E2,4.4E1,6E1,3.7E1,3.94E2,6.61E2,3.5E1,4E0,8.6E1,1.7E1,4E0,3E0,6.54E2,2.7E1,4E0,1E0,1E0,8E0,4E0,3.2E1,1.2E1,2.2E1,7E0,2E0,4E0,2.8E1,7E0,2E0,1E0,6E0,3E0,2E0,1.52E2,2.5E1,5E0,3.9E1,2.9E1,3.1E1,2.9E1,8E0,3.59E2,3.5E1,6.47E2,1.4E1,2E1,1.5E1,2E0,2E0,4.7E1,3.9E1,5E0,1.2E1,2E0,1E0,4.44E2,2.1E2,1.6E1,1.1E1,3E0,1E0,7E0,1E0,3E0,1E0,1.6E1,1.6E1,5E0,7E0,9E0,1.3E1,6E0,1E0,1E0,3E0,1.1E1,1.7E1,1E0,6E0],"tree_param":{"num_deleted":"0","num_feature":"7","num_nodes":"111","size_leaf_vector":"1"}},{"base_weights":[1.3821959E-2,-1.9261923E-2,2.20358E0,2.4944714E-1,-2.1226402E-1,3.1198487E0,-1.2788081E0,4.5011584E-2,1.878836E0,5.8076356E-2,-7.6158035E-1,-8.561909E-1,4.485966E0,1.2191925E0,-2.3146737E0,1.9356494E-1,-1.8420948E0,3.2936072E0,-1.0421956E0,-4.289808E0,1.5615718E-1,-1.2603225E0,2.3766787E-1,8.9876527E-1,-1.9711328E0,5.656168E0,6.1776733E-1,5.1326755E-2,4.973099E-1,-9.108276E-1,-5.812251E-1,-2.7594104E-1,7.9190195E-1,-3.0478046E0,1.5996966E0,2.0698752E0,8.78238E0,-1.9815837E0,2.9854808E0,8.11053E-1,-7.7579694E0,3.1390265E-1,-1.5537825E0,-8.843687E-1,-2.143163E0,-4.7660285E-1,2.864114E0,1.0726265E0,-2.002582E0,9.089497E0,3.269246E0,-7.3481715E-1,1.721077E0,-3.941002E-2,-2.2214128E-1,-1.789189E-1,7.0565754E-1,2.798182E-1,-1.2352791E0,5.8116134E-2,-1.4673378E0,-8.0547637E-1,1.4602264E0,-6.499784E-1,7.977508E-1,4.6496673E0,7.941603E-1,-1.2252469E0,-2.8060165E-1,-1.7902699E-1,8.1600124E-1,-1.7249107E-2,-2.5358357E0,1.7143911E-1,-2.1217868E-1,1.3687088E0,-5.09426E-1,-3.0604088E-1,1.9088079E0,-9.345334E-1,-3.0134356E-1,2.014677E-2,-1.0503647E0,3.2894995E-2,1.1333101E0,-9.9133074E-1,2.8544685E-1,3.0231552E0,6.226593E-1,2.855568E-1,1.5125287E0,5.1576998E-2,8.089615E-1],"categories":[],"categories_nodes":[],"categories_segments":[],"categories_sizes":[],"default_left":[0,0,1,0,0,0,0,0,0,0,0,0,0,0,0,0,0,0,0,0,0,0,0,0,0,0,0,0,0,0,0,0,0,0,0,0,0,0,0,0,0,0,0,0,0,0,0,0,0,0,0,0,0,0,0,0,0,0,0,0,0,0,0,0,0,0,0,0,0,0,0,0,0,0,0,0,0,0,0,0,0,0,0,0,0,0,0,0,0,0,0,0,0],"id":11,"left_children":[1,3,5,7,9,11,13,15,17,19,21,23,25,27,29,31,33,35,37,39,41,43,45,47,-1,49,51,-1,-1,-1,53,55,57,59,61,63,65,67,-1,69,71,73,75,77,79,81,83,-1,85,87,89,-1,91,-1,-1,-1,-1,-1,-1,-1,-1,-1,-1,-1,-1,-1,-1,-1,-1,-1,-1,-1,-1,-1,-1,-1,-1,-1,-1,-1,-1,-1,-1,-1,-1,-1,-1,-1,-1,-1,-1,-1,-1],"loss_changes":[1.7036226E2,1.2021583E2,1.156678E2,3.2269418E2,2.0037393E2,1.5592947E2,2.3522774E1,2.4200618E2,4.4975247E2,3.8660175E2,2.2207294E2,8.613138E1,9.156384E1,1.0951881E0,5.738594E0,2.2495679E2,2.6631305E2,4.721471E2,3.9150787E2,3.6010437E2,2.3947314E2,9.668106E1,2.8088812E2,6.1521435E1,0E0,1.0140558E2,2.4519735E1,0E0,0E0,0E0,1.1764085E-1,3.7955023E2,2.4720694E2,2.8178064E2,2.5108478E2,1.5804944E2,4.9466217E2,7.097331E1,0E0,2.5810139E1,6.3718872E1,2.1397015E2,7.394118E1,2.1311308E2,9.426428E1,1.9430496E2,8.011185E1,0E0,1.852721E1,2.0650055E1,4.038468E1,0E0,7.0921E0,0E0,0E0,0E0,0E0,0E0,0E0,0E0,0E0,0E0,0E0,0E0,0E0,0E0,0E0,0E0,0E0,0E0,0E0,0E0,0E0,0E0,0E0,0E0,0E0,0E0,0E0,0E0,0E0,0E0,0E0,0E0,0E0,0E0,0E0,0E0,0E0,0E0,0E0,0E0,0E0],"parents":[2147483647,0,0,1,1,2,2,3,3,4,4,5,5,6,6,7,7,8,8,9,9,10,10,11,11,12,12,13,13,14,14,15,15,16,16,17,17,18,18,19,19,20,20,21,21,22,22,23,23,25,25,26,26,30,30,31,31,32,32,33,33,34,34,35,35,36,36,37,37,39,39,40,40,41,41,42,42,43,43,44,44,45,45,46,46,48,48,49,49,50,50,52,52],"right_children":[2,4,6,8,10,12,14,16,18,20,22,24,26,28,30,32,34,36,38,40,42,44,46,48,-1,50,52,-1,-1,-1,54,56,58,60,62,64,66,68,-1,70,72,74,76,78,80,82,84,-1,86,88,90,-1,92,-1,-1,-1,-1,-1,-1,-1,-1,-1,-1,-1,-1,-1,-1,-1,-1,-1,-1,-1,-1,-1,-1,-1,-1,-1,-1,-1,-1,-1,-1,-1,-1,-1,-1,-1,-1,-1,-1,-1,-1],"split_conditions":[6.5E1,2.053707E2,6.8E1,1.9367131E2,1.0620668E1,2.7E1,1.584E1,1.8598758E2,2.8E1,2.0912935E2,1.7168585E1,2.6E1,2.1000001E0,6.9E1,8E1,1.2351665E2,3.2E1,4.1E0,2.0405606E2,2.2E1,3.7999997E0,2.4E1,1.9E0,2.0000002E0,-1.9711328E0,5.6E1,4E1,5.1326755E-2,4.973099E-1,-9.108276E-1,7.8E1,1.8174833E1,1.5E1,1.7E1,1.8818553E2,9.748334E-1,1.9917561E2,3.4E1,2.9854808E0,6.4352508E0,1.2E1,3.2097742E2,2.1057608E2,3.6E1,1.787718E1,3.8E1,1.4E1,1.0726265E0,7.5E1,3.9E1,5E1,-7.3481715E-1,7.4E1,-3.941002E-2,-2.2214128E-1,-1.789189E-1,7.0565754E-1,2.798182E-1,-1.2352791E0,5.8116134E-2,-1.4673378E0,-8.0547637E-1,1.4602264E0,-6.499784E-1,7.977508E-1,4.6496673E0,7.941603E-1,-1.2252469E0,-2.8060165E-1,-1.7902699E-1,8.1600124E-1,-1.7249107E-2,-2.5358357E0,1.7143911E-1,-2.1217868E-1,1.3687088E0,-5.09426E-1,-3.0604088E-1,1.9088079E0,-9.345334E-1,-3.0134356E-1,2.014677E-2,-1.0503647E0,3.2894995E-2,1.1333101E0,-9.9133074E-1,2.8544685E-1,3.0231552E0,6.226593E-1,2.855568E-1,1.5125287E0,5.1576998E-2,8.089615E-1],"split_indices":[0,6,2,6,3,2,5,6,2,6,3,2,4,0,0,6,0,4,6,0,4,1,4,4,0,1,1,0,0,0,1,3,4,1,6,3,6,2,0,3,2,6,6,0,5,2,2,0,0,2,2,0,0,0,0,0,0,0,0,0,0,0,0,0,0,0,0,0,0,0,0,0,0,0,0,0,0,0,0,0,0,0,0,0,0,0,0,0,0,0,0,0,0],"split_type":[0,0,0,0,0,0,0,0,0,0,0,0,0,0,0,0,0,0,0,0,0,0,0,0,0,0,0,0,0,0,0,0,0,0,0,0,0,0,0,0,0,0,0,0,0,0,0,0,0,0,0,0,0,0,0,0,0,0,0,0,0,0,0,0,0,0,0,0,0,0,0,0,0,0,0,0,0,0,0,0,0,0,0,0,0,0,0,0,0,0,0,0,0],"sum_hessian":[2.35E3,2.316E3,3.4E1,9.68E2,1.348E3,2.7E1,7E0,8.61E2,1.07E2,9.04E2,4.44E2,7E0,2E1,2E0,5E0,7.99E2,6.2E1,7.2E1,3.5E1,1.9E1,8.85E2,2.96E2,1.48E2,6E0,1E0,1.5E1,5E0,1E0,1E0,3E0,2E0,4.48E2,3.51E2,4.6E1,1.6E1,6E1,1.2E1,3.3E1,2E0,8E0,1.1E1,8.11E2,7.4E1,2.09E2,8.7E1,1.17E2,3.1E1,3E0,3E0,5E0,1E1,1E0,4E0,1E0,1E0,4E2,4.8E1,3.42E2,9E0,1.7E1,2.9E1,7E0,9E0,7E0,5.3E1,5E0,7E0,1E1,2.3E1,5E0,3E0,1E0,1E1,6.48E2,1.63E2,1E0,7.3E1,2.06E2,3E0,4.6E1,4.1E1,1E2,1.7E1,8E0,2.3E1,2E0,1E0,4E0,1E0,5E0,5E0,2E0,2E0],"tree_param":{"num_deleted":"0","num_feature":"7","num_nodes":"93","size_leaf_vector":"1"}},{"base_weights":[1.3348347E-2,-1.7883685E-1,2.8811175E-1,-1.2587525E0,-1.3065144E-1,7.123549E-1,-3.6970645E-2,-1.9974107E0,8.512297E-1,6.245218E-1,-2.3925771E-1,1.0780281E0,-8.080788E-1,-1.7895712E-1,2.946224E0,-6.1125517E-1,-3.7891283E0,1.9062372E0,-1.8510342E0,4.0205237E-1,1.4987535E0,-1.7052807E0,-1.8129507E-1,1.6823118E0,-5.6262845E-1,2.3155172E0,-1.6606426E0,-5.242256E-1,9.071932E-1,1.4506096E0,5.9430785E0,2.974851E0,-1.8358295E0,-2.5806105E0,-1.5384791E0,8.4841406E-1,5.0094415E-2,2.8623468E-1,-1.2117518E0,1.2309563E0,-7.0897967E-1,-2.6913366E0,1.9122012E-2,2.5596726E0,-2.3360047E-1,-1.2796893E0,2.1270514E0,-1.900313E0,1.2238693E0,-1.9951917E0,3.234152E0,-5.3209066E0,-4.5614538E-1,7.0818E-2,-1.5670662E0,-8.2734317E-1,1.8366743E0,3.8849792E0,-4.5171478E-1,6.6076155E0,1.9369812E-1,1.3160919E0,2.457048E-1,1.2391663E-1,-9.2356235E-1,-1.0382786E-1,-8.978715E-1,1.918055E-1,-3.4604016E-1,9.7716284E-1,8.8073015E-2,-7.4009573E-1,3.3463046E-2,-1.2194104E0,-5.107619E-1,1.1647277E0,-7.323246E-1,-4.6645752E-1,1.2927427E0,-2.0765673E-1,-2.6446695E-2,1.146178E0,-1.722654E0,1.4563487E-1,9.6278995E-1,1.4716011E-1,-1.124894E0,1.903657E0,4.002455E-2,1.3324989E0,-1.6566171E-1,-2.205526E0,1.8519254E-1,1.1674768E0,-4.1308266E-1,3.8694742E-1,-2.3319142E-1,1.7674547E0,-5.2983946E-1,-4.17028E-1,1.5865108E0,8.48011E-1,1.5882906E-1,1.6556071E0,-2.0323068E-1,-5.202477E-1,6.678307E-1,6.124237E-1,2.4077444E0],"categories":[],"categories_nodes":[],"categories_segments":[],"categories_sizes":[],"default_left":[0,0,0,0,0,0,0,0,0,0,0,0,0,1,0,0,0,0,0,0,0,0,0,0,0,0,0,0,0,0,0,0,0,0,0,0,0,0,0,0,0,0,0,0,0,0,0,0,0,0,0,0,0,0,0,0,0,0,0,0,0,0,0,0,0,0,0,0,0,0,0,0,0,0,0,0,0,0,0,0,0,0,0,0,0,0,0,0,0,0,0,0,0,0,0,0,0,0,0,0,0,0,0,0,0,0,0,0,0],"id":12,"left_children":[1,3,5,7,9,11,13,15,17,19,21,23,25,27,29,31,33,35,37,39,-1,41,43,45,47,49,51,53,55,57,59,61,63,65,-1,-1,67,-1,-1,69,71,73,75,77,79,81,83,85,87,-1,89,91,93,95,97,99,101,103,105,107,-1,-1,-1,-1,-1,-1,-1,-1,-1,-1,-1,-1,-1,-1,-1,-1,-1,-1,-1,-1,-1,-1,-1,-1,-1,-1,-1,-1,-1,-1,-1,-1,-1,-1,-1,-1,-1,-1,-1,-1,-1,-1,-1,-1,-1,-1,-1,-1,-1],"loss_changes":[1.2419715E2,7.1853615E1,1.3352704E2,9.365504E1,1.0890335E2,2.3438353E2,2.3306898E2,1.06962234E2,4.914305E1,1.6039651E2,9.826134E1,3.370386E2,2.2221658E2,1.9735765E2,1.0343239E2,1.1963911E2,1.7514954E1,2.039045E1,3.4544117E1,1.4822293E2,0E0,7.4867195E1,1.6073936E2,3.29417E2,2.2218463E2,1.6976843E2,2.841435E2,2.4770468E2,2.0627136E2,8.511219E1,2.3896332E1,1.7717117E1,5.716591E1,1.0019524E1,0E0,0E0,4.283508E0,0E0,0E0,1.7378563E2,9.980661E1,3.1103088E1,1.7105406E2,1.578633E2,7.3108154E1,7.730174E2,3.8219232E2,2.3617741E2,2.2255057E2,0E0,8.017786E1,1.97492E2,2.0552748E2,2.6463876E2,2.2569312E2,1.6222414E2,1.0592285E2,6.336789E1,4.1636078E1,2.8946503E1,0E0,0E0,0E0,0E0,0E0,0E0,0E0,0E0,0E0,0E0,0E0,0E0,0E0,0E0,0E0,0E0,0E0,0E0,0E0,0E0,0E0,0E0,0E0,0E0,0E0,0E0,0E0,0E0,0E0,0E0,0E0,0E0,0E0,0E0,0E0,0E0,0E0,0E0,0E0,0E0,0E0,0E0,0E0,0E0,0E0,0E0,0E0,0E0,0E0],"parents":[2147483647,0,0,1,1,2,2,3,3,4,4,5,5,6,6,7,7,8,8,9,9,10,10,11,11,12,12,13,13,14,14,15,15,16,16,17,17,18,18,19,19,21,21,22,22,23,23,24,24,25,25,26,26,27,27,28,28,29,29,30,30,31,31,32,32,33,33,36,36,39,39,40,40,41,41,42,42,43,43,44,44,45,45,46,46,47,47,48,48,50,50,51,51,52,52,53,53,54,54,55,55,56,56,57,57,58,58,59,59],"right_children":[2,4,6,8,10,12,14,16,18,20,22,24,26,28,30,32,34,36,38,40,-1,42,44,46,48,50,52,54,56,58,60,62,64,66,-1,-1,68,-1,-1,70,72,74,76,78,80,82,84,86,88,-1,90,92,94,96,98,100,102,104,106,108,-1,-1,-1,-1,-1,-1,-1,-1,-1,-1,-1,-1,-1,-1,-1,-1,-1,-1,-1,-1,-1,-1,-1,-1,-1,-1,-1,-1,-1,-1,-1,-1,-1,-1,-1,-1,-1,-1,-1,-1,-1,-1,-1,-1,-1,-1,-1,-1,-1],"split_conditions":[2.4E1,-4.700166E0,1E-1,3.0903217E2,1.8583387E-2,1.6704E1,2.0866499E1,-6.4460006E0,3.348931E2,-2.2933334E-1,6.3733345E-1,4.3E1,9.4969635E1,4E1,2.3E0,1.3084402E1,1.6E1,1.8E1,1.5E1,4E-1,1.4987535E0,2.8E1,1.0873333E0,8.578182E1,5.2E1,3.2178623E1,1.2429127E1,3E1,1.5408671E1,2.4E1,4.7E1,1.14862E1,1.3E1,1.2E1,-1.5384791E0,8.4841406E-1,3.8E1,2.8623468E-1,-1.2117518E0,1.5E1,1.7555305E1,1.9025316E2,3.4E1,1.5E1,1.2E1,1.3755579E1,3.8665E0,3.8E1,5.4E1,-1.9951917E0,2.0331083E1,4E1,1.535661E2,2.0405606E2,1.4E1,1.9029E1,2.109305E1,2.7E1,2.0405606E2,2.7E1,1.9369812E-1,1.3160919E0,2.457048E-1,1.2391663E-1,-9.2356235E-1,-1.0382786E-1,-8.978715E-1,1.918055E-1,-3.4604016E-1,9.7716284E-1,8.8073015E-2,-7.4009573E-1,3.3463046E-2,-1.2194104E0,-5.107619E-1,1.1647277E0,-7.323246E-1,-4.6645752E-1,1.2927427E0,-2.0765673E-1,-2.6446695E-2,1.146178E0,-1.722654E0,1.4563487E-1,9.6278995E-1,1.4716011E-1,-1.124894E0,1.903657E0,4.002455E-2,1.3324989E0,-1.6566171E-1,-2.205526E0,1.8519254E-1,1.1674768E0,-4.1308266E-1,3.8694742E-1,-2.3319142E-1,1.7674547E0,-5.2983946E-1,-4.17028E-1,1.5865108E0,8.48011E-1,1.5882906E-1,1.6556071E0,-2.0323068E-1,-5.202477E-1,6.678307E-1,6.124237E-1,2.4077444E0],"split_indices":[0,3,4,6,3,3,3,3,6,3,3,1,6,2,4,5,0,1,0,4,0,2,3,6,0,6,5,1,5,2,0,5,1,2,0,0,1,0,0,1,5,6,2,2,2,5,3,0,0,0,3,2,6,6,2,3,5,1,6,1,0,0,0,0,0,0,0,0,0,0,0,0,0,0,0,0,0,0,0,0,0,0,0,0,0,0,0,0,0,0,0,0,0,0,0,0,0,0,0,0,0,0,0,0,0,0,0,0,0],"split_type":[0,0,0,0,0,0,0,0,0,0,0,0,0,0,0,0,0,0,0,0,0,0,0,0,0,0,0,0,0,0,0,0,0,0,0,0,0,0,0,0,0,0,0,0,0,0,0,0,0,0,0,0,0,0,0,0,0,0,0,0,0,0,0,0,0,0,0,0,0,0,0,0,0,0,0,0,0,0,0,0,0,0,0,0,0,0,0,0,0,0,0,0,0,0,0,0,0,0,0,0,0,0,0,0,0,0,0,0,0],"sum_hessian":[2.35E3,1.383E3,9.67E2,5.8E1,1.325E3,4.19E2,5.48E2,4.3E1,1.5E1,1.66E2,1.159E3,3.38E2,8.1E1,5.24E2,2.4E1,2.5E1,1.8E1,1.1E1,4E0,1.59E2,7E0,4.3E1,1.116E3,2.47E2,9.1E1,1.7E1,6.4E1,3.98E2,1.26E2,1.7E1,7E0,6E0,1.9E1,1.1E1,7E0,7E0,4E0,2E0,2E0,9.1E1,6.8E1,2.7E1,1.6E1,2E1,1.096E3,3.2E1,2.15E2,5.2E1,3.9E1,1E0,1.6E1,1.5E1,4.9E1,2.54E2,1.44E2,4.4E1,8.2E1,7E0,1E1,6E0,1E0,3E0,3E0,7E0,1.2E1,2E0,9E0,3E0,1E0,2.8E1,6.3E1,2.1E1,4.7E1,1E1,1.7E1,6E0,1E1,6E0,1.4E1,2.63E2,8.33E2,1.5E1,1.7E1,8.6E1,1.29E2,2.3E1,2.9E1,6E0,3.3E1,1.2E1,4E0,1.1E1,4E0,8E0,4.1E1,1.04E2,1.5E2,3E0,1.41E2,4.1E1,3E0,4.6E1,3.6E1,5E0,2E0,7E0,3E0,2E0,4E0],"tree_param":{"num_deleted":"0","num_feature":"7","num_nodes":"109","size_leaf_vector":"1"}},{"base_weights":[1.2290399E-2,-4.1915462E-3,2.4178863E0,-7.987951E-1,3.3563796E-2,3.4152343E0,-4.5932692E-1,-9.5554686E-1,1.4704592E0,-6.6959655E-1,8.711528E-2,4.130422E0,-6.677742E-1,4.167103E-1,-1.2686758E0,2.0823435E-1,-1.430164E0,-2.2959341E-1,-2.3949342E0,5.5335575E-1,-5.17325E-2,4.669271E-1,4.9011183E0,-3.9502144E-2,-4.8113558E-1,1.0095673E0,-1.3405135E0,-1.9067928E0,-5.7903135E-1,5.3178006E-1,-1.3379548E0,-1.0126088E0,-4.6144257E0,2.0667858E-1,3.3761337E0,1.8344279E-1,-4.7893173E-1,1.5729545E0,3.760014E-1,-3.490162E-1,3.898591E-1,1.772064E-1,-6.41565E-1,-2.2137152E-1,-7.820593E-1,-2.528365E-1,5.6996167E-1,-1.0389251E-3,8.1259996E-1,-9.4435406E-1,-6.015194E-2,-4.6798444E-1,5.1107115E-1,-1.7420456E0,-2.3338081E-1,-1.1889806E-1,3.8111553E-1,2.006972E0,1.8015375E-2,1.0182102E-1,-1.9322304E-1,-1.2275888E-1,-1.8027824E0],"categories":[],"categories_nodes":[],"categories_segments":[],"categories_sizes":[],"default_left":[0,0,1,0,0,0,0,0,0,0,0,1,0,0,0,0,0,0,0,0,0,0,0,0,0,0,0,0,0,0,0,0,0,0,0,0,0,0,0,0,0,0,0,0,0,0,0,0,0,0,0,0,0,0,0,0,0,0,0,0,0,0,0],"id":13,"left_children":[1,3,5,7,9,11,13,15,-1,17,19,21,-1,-1,23,25,27,29,31,33,35,-1,37,-1,-1,39,41,43,45,47,49,51,53,55,57,59,61,-1,-1,-1,-1,-1,-1,-1,-1,-1,-1,-1,-1,-1,-1,-1,-1,-1,-1,-1,-1,-1,-1,-1,-1,-1,-1],"loss_changes":[9.3224686E1,7.010804E1,4.748204E1,9.9398476E1,8.406725E1,5.7607727E1,9.24208E0,5.774225E1,0E0,1.1939647E2,1.3429204E2,1.4193253E1,0E0,0E0,1.3129039E0,3.9826283E1,2.8915817E1,1.07883865E2,9.3505325E1,4.6511237E2,1.6073413E2,0E0,3.4106903E0,0E0,0E0,1.47434635E1,1.8216078E1,3.6536713E1,1.9908371E1,8.85618E1,1.0641909E2,3.3877586E1,5.0377914E1,2.731073E2,5.71013E2,1.33409E2,2.1659648E2,0E0,0E0,0E0,0E0,0E0,0E0,0E0,0E0,0E0,0E0,0E0,0E0,0E0,0E0,0E0,0E0,0E0,0E0,0E0,0E0,0E0,0E0,0E0,0E0,0E0,0E0],"parents":[2147483647,0,0,1,1,2,2,3,3,4,4,5,5,6,6,7,7,9,9,10,10,11,11,14,14,15,15,16,16,17,17,18,18,19,19,20,20,22,22,25,25,26,26,27,27,28,28,29,29,30,30,31,31,32,32,33,33,34,34,35,35,36,36],"right_children":[2,4,6,8,10,12,14,16,-1,18,20,22,-1,-1,24,26,28,30,32,34,36,-1,38,-1,-1,40,42,44,46,48,50,52,54,56,58,60,62,-1,-1,-1,-1,-1,-1,-1,-1,-1,-1,-1,-1,-1,-1,-1,-1,-1,-1,-1,-1,-1,-1,-1,-1,-1,-1],"split_conditions":[7.6E1,9E0,7.4E1,3.5680786E2,4.578638E1,2.4303964E2,7.9E1,4.2165E0,1.4704592E0,2.1288757E1,1.639867E2,3.4E1,-6.677742E-1,4.167103E-1,7.8E1,2.0858265E1,1.1E1,5.8123336E0,2.4E1,1.5408606E2,1.1068584E1,4.669271E-1,9.3E1,-3.9502144E-2,-4.8113558E-1,-2.985583E0,-4.3209996E0,9E0,3.348931E2,2.8998337E0,1E-1,1.463525E1,3.3E1,1.3697749E1,4E-1,2.7E0,5.9E1,1.5729545E0,3.760014E-1,-3.490162E-1,3.898591E-1,1.772064E-1,-6.41565E-1,-2.2137152E-1,-7.820593E-1,-2.528365E-1,5.6996167E-1,-1.0389251E-3,8.1259996E-1,-9.4435406E-1,-6.015194E-2,-4.6798444E-1,5.1107115E-1,-1.7420456E0,-2.3338081E-1,-1.1889806E-1,3.8111553E-1,2.006972E0,1.8015375E-2,1.0182102E-1,-1.9322304E-1,-1.2275888E-1,-1.8027824E0],"split_indices":[0,0,2,6,6,6,0,3,0,5,6,2,0,0,1,5,1,3,0,6,3,0,0,0,0,3,3,2,6,3,4,3,2,3,4,4,1,0,0,0,0,0,0,0,0,0,0,0,0,0,0,0,0,0,0,0,0,0,0,0,0,0,0],"split_type":[0,0,0,0,0,0,0,0,0,0,0,0,0,0,0,0,0,0,0,0,0,0,0,0,0,0,0,0,0,0,0,0,0,0,0,0,0,0,0,0,0,0,0,0,0,0,0,0,0,0,0,0,0,0,0,0,0,0,0,0,0,0,0],"sum_hessian":[2.35E3,2.335E3,1.5E1,1.05E2,2.23E3,1.1E1,4E0,1.03E2,2E0,1.57E2,2.073E3,1E1,1E0,1E0,3E0,3E1,7.3E1,1.26E2,3.1E1,4.75E2,1.598E3,3E0,7E0,1E0,2E0,2E1,1E1,4.6E1,2.7E1,7.5E1,5.1E1,2E1,1.1E1,4.24E2,5.1E1,1.031E3,5.67E2,6E0,1E0,2E0,1.8E1,3E0,7E0,1.8E1,2.8E1,2.5E1,2E0,6.1E1,1.4E1,1.9E1,3.2E1,1.7E1,3E0,8E0,3E0,2.71E2,1.53E2,2.5E1,2.6E1,8.68E2,1.63E2,5.61E2,6E0],"tree_param":{"num_deleted":"0","num_feature":"7","num_nodes":"63","size_leaf_vector":"1"}},{"base_weights":[8.666822E-3,-5.105723E-2,5.4412204E-1,8.6602755E-3,-1.0998564E0,3.0031967E0,2.1207313E-1,-6.676445E-2,6.529617E-1,-1.7409971E0,1.6604139E0,6.870733E0,1.8637006E0,-5.631442E-1,1.2636375E0,-8.828421E-2,2.1878765E0,-9.760793E-2,1.8738574E0,-2.059286E0,3.2174063E0,3.3801374E0,-2.5075848E0,-8.2500964E-1,1.0924856E1,2.6531584E0,-1.5089794E0,-3.7332246E0,-1.4699358E-1,1.9445355E0,-1.3472781E0,-3.4223452E-2,-1.1386579E0,3.2469583E0,-6.197637E-1,2.2523067E0,-6.457412E-1,3.8925972E0,-4.5981795E-1,-4.052397E0,-1.0109367E0,1.6323308E0,7.4528265E-1,-3.1970215E-1,5.6320114E0,7.859497E-1,-3.9821885E0,-4.8570558E-1,1.1445122E-1,4.276211E-1,4.084862E0,1.8600988E-1,4.0768275E0,-7.34614E-1,-6.625239E-2,-5.0953493E0,9.459238E-1,1.5134027E0,-1.0699716E0,3.797178E-1,3.015964E0,-3.4103107E0,1.3239037E0,-4.167283E-2,1.9680373E-1,-1.4811532E-1,-1.4315635E0,4.855598E-1,2.0740168E0,3.2386065E-2,1.6374124E0,-1.4352357E0,-3.6515247E-2,1.8326317E0,-3.403178E-1,3.257769E-1,-8.7070465E-1,-4.8734286E-1,-1.9116058E0,-8.5214514E-1,-4.1532274E-2,-2.1291704E-1,4.4005778E-1,8.507367E-1,-6.4471686E-1,1.8840333E0,-3.0132867E-2,4.415789E-1,-8.79015E-2,-1.3296585E0,-3.273245E-1,-1.6419584E-1,3.1685072E-1,6.359306E-1,1.917827E0,-5.181027E-2,2.199669E-2,6.033764E-2,-1.8884073E0,-1.9894658E-1,8.659742E-1,-1.168614E0,7.844579E-1,-2.1225069E0,-1.4975944E-1,4.7706586E-1,-1.4181976E0,9.8996025E-1,-5.324206E-1,-1.4759985E0,-3.9967236E-1,8.998209E-1,-4.5609635E-1],"categories":[],"categories_nodes":[],"categories_segments":[],"categories_sizes":[],"default_left":[1,1,0,0,0,0,0,0,1,0,0,0,0,0,0,0,0,0,0,0,0,0,0,0,0,0,0,0,0,0,0,0,0,0,0,0,0,0,0,0,0,0,0,0,0,0,0,0,0,0,0,0,0,0,0,0,0,0,0,0,0,0,0,0,0,0,0,0,0,0,0,0,0,0,0,0,0,0,0,0,0,0,0,0,0,0,0,0,0,0,0,0,0,0,0,0,0,0,0,0,0,0,0,0,0,0,0,0,0,0,0,0,0],"id":14,"left_children":[1,3,5,7,9,11,13,15,17,19,21,23,25,27,29,31,33,35,37,39,41,43,45,47,49,51,53,55,57,59,61,63,65,67,-1,69,71,73,75,77,79,-1,81,83,85,87,89,-1,-1,-1,-1,91,93,-1,95,97,99,101,103,105,107,109,111,-1,-1,-1,-1,-1,-1,-1,-1,-1,-1,-1,-1,-1,-1,-1,-1,-1,-1,-1,-1,-1,-1,-1,-1,-1,-1,-1,-1,-1,-1,-1,-1,-1,-1,-1,-1,-1,-1,-1,-1,-1,-1,-1,-1,-1,-1,-1,-1,-1,-1],"loss_changes":[7.5211716E1,1.3253815E2,1.9206491E2,9.73819E1,2.0463904E2,1.1059216E2,1.7108652E2,8.7236824E1,1.9262003E2,1.5339865E2,1.661677E2,1.9621008E2,6.52431E1,1.5907822E2,1.608411E2,1.0092299E2,8.329408E1,1.701911E2,3.7867654E2,1.7977719E2,2.8928349E1,1.351057E2,3.7126404E1,3.4916098E0,8.285678E1,6.597734E1,6.616664E0,9.404997E1,1.671303E2,1.178927E2,1.0921889E2,1.2235169E2,2.0150333E2,7.23976E1,0E0,1.7126648E2,2.3145874E2,4.859795E2,1.4662149E2,1.5860458E2,9.3786804E1,0E0,5.240657E0,4.6501842E1,3.7782806E1,2.6517062E0,1.6691971E0,0E0,0E0,0E0,0E0,5.6829677E0,4.0837753E1,0E0,5.723537E-2,7.1141174E1,1.4404931E1,2.4252997E2,2.3639482E2,1.9298001E2,6.298044E1,2.795491E1,4.7449528E1,0E0,0E0,0E0,0E0,0E0,0E0,0E0,0E0,0E0,0E0,0E0,0E0,0E0,0E0,0E0,0E0,0E0,0E0,0E0,0E0,0E0,0E0,0E0,0E0,0E0,0E0,0E0,0E0,0E0,0E0,0E0,0E0,0E0,0E0,0E0,0E0,0E0,0E0,0E0,0E0,0E0,0E0,0E0,0E0,0E0,0E0,0E0,0E0,0E0,0E0],"parents":[2147483647,0,0,1,1,2,2,3,3,4,4,5,5,6,6,7,7,8,8,9,9,10,10,11,11,12,12,13,13,14,14,15,15,16,16,17,17,18,18,19,19,20,20,21,21,22,22,23,23,24,24,25,25,26,26,27,27,28,28,29,29,30,30,31,31,32,32,33,33,35,35,36,36,37,37,38,38,39,39,40,40,42,42,43,43,44,44,45,45,46,46,51,51,52,52,54,54,55,55,56,56,57,57,58,58,59,59,60,60,61,61,62,62],"right_children":[2,4,6,8,10,12,14,16,18,20,22,24,26,28,30,32,34,36,38,40,42,44,46,48,50,52,54,56,58,60,62,64,66,68,-1,70,72,74,76,78,80,-1,82,84,86,88,90,-1,-1,-1,-1,92,94,-1,96,98,100,102,104,106,108,110,112,-1,-1,-1,-1,-1,-1,-1,-1,-1,-1,-1,-1,-1,-1,-1,-1,-1,-1,-1,-1,-1,-1,-1,-1,-1,-1,-1,-1,-1,-1,-1,-1,-1,-1,-1,-1,-1,-1,-1,-1,-1,-1,-1,-1,-1,-1,-1,-1,-1,-1],"split_conditions":[4.4E1,3.9E1,4.5E1,3.9E1,1.6801918E1,1.4044615E1,5E-1,2.2597748E1,3E1,5.2E1,2.0678999E1,2.9E1,5.1E1,2.7E1,6.9E0,3.5E1,2.6E1,1.272283E1,4.3E1,1.8384108E2,6.32275E0,1.3202726E1,3.1E1,1.7E1,2.9E1,3.5E1,5.4E1,1.7771753E1,1.5141414E1,1.5629971E1,2.2007162E1,4.5E0,4.5999994E0,2.3E1,-6.197637E-1,2.2245255E2,1.4275713E1,1.3920666E1,2E-1,1.1460728E2,1.8E1,1.6323308E0,5.5E1,1.2808092E2,2.4445122E2,2.2E1,4.2E1,-4.8570558E-1,1.1445122E-1,4.276211E-1,4.084862E0,1.6E1,6E-1,-7.34614E-1,6.1E1,1.02034836E2,4.9E1,1.0086427E1,1.5484185E1,5.9E1,1.5235249E1,8.8E0,2.3269482E1,-4.167283E-2,1.9680373E-1,-1.4811532E-1,-1.4315635E0,4.855598E-1,2.0740168E0,3.2386065E-2,1.6374124E0,-1.4352357E0,-3.6515247E-2,1.8326317E0,-3.403178E-1,3.257769E-1,-8.7070465E-1,-4.8734286E-1,-1.9116058E0,-8.5214514E-1,-4.1532274E-2,-2.1291704E-1,4.4005778E-1,8.507367E-1,-6.4471686E-1,1.8840333E0,-3.0132867E-2,4.415789E-1,-8.79015E-2,-1.3296585E0,-3.273245E-1,-1.6419584E-1,3.1685072E-1,6.359306E-1,1.917827E0,-5.181027E-2,2.199669E-2,6.033764E-2,-1.8884073E0,-1.9894658E-1,8.659742E-1,-1.168614E0,7.844579E-1,-2.1225069E0,-1.4975944E-1,4.7706586E-1,-1.4181976E0,9.8996025E-1,-5.324206E-1,-1.4759985E0,-3.9967236E-1,8.998209E-1,-4.5609635E-1],"split_indices":[2,2,2,0,3,5,4,3,2,0,3,0,1,1,4,0,2,5,1,6,3,5,0,0,1,1,0,5,5,5,5,4,4,2,0,6,5,3,4,6,0,0,0,6,6,0,2,0,0,0,0,0,4,0,0,6,2,5,5,2,3,4,5,0,0,0,0,0,0,0,0,0,0,0,0,0,0,0,0,0,0,0,0,0,0,0,0,0,0,0,0,0,0,0,0,0,0,0,0,0,0,0,0,0,0,0,0,0,0,0,0,0,0],"split_type":[0,0,0,0,0,0,0,0,0,0,0,0,0,0,0,0,0,0,0,0,0,0,0,0,0,0,0,0,0,0,0,0,0,0,0,0,0,0,0,0,0,0,0,0,0,0,0,0,0,0,0,0,0,0,0,0,0,0,0,0,0,0,0,0,0,0,0,0,0,0,0,0,0,0,0,0,0,0,0,0,0,0,0,0,0,0,0,0,0,0,0,0,0,0,0,0,0,0,0,0,0,0,0,0,0,0,0,0,0,0,0,0,0],"sum_hessian":[2.35E3,2.115E3,2.35E2,2.002E3,1.13E2,2.7E1,2.08E2,1.793E3,2.09E2,9.2E1,2.1E1,5E0,2.2E1,1.2E2,8.8E1,1.777E3,1.6E1,1.3E2,7.9E1,8.7E1,5E0,1.5E1,6E0,2E0,3E0,1.8E1,4E0,1.3E1,1.07E2,7E1,1.8E1,1.691E3,8.6E1,1.3E1,3E0,2.4E1,1.06E2,4.2E1,3.7E1,2.9E1,5.8E1,2E0,3E0,6E0,9E0,2E0,4E0,1E0,1E0,1E0,2E0,7E0,1.1E1,2E0,2E0,1E1,3E0,3.8E1,6.9E1,2.9E1,4.1E1,1E1,8E0,1.469E3,2.22E2,7.4E1,1.2E1,1E1,3E0,1.5E1,9E0,1.1E1,9.5E1,2.9E1,1.3E1,2.3E1,1.4E1,1.5E1,1.4E1,1.8E1,4E1,1E0,2E0,2E0,4E0,8E0,1E0,1E0,1E0,3E0,1E0,4E0,3E0,7E0,4E0,1E0,1E0,2E0,8E0,2E0,1E0,6E0,3.2E1,5E0,6.4E1,2.4E1,5E0,3.9E1,2E0,5E0,5E0,5E0,3E0],"tree_param":{"num_deleted":"0","num_feature":"7","num_nodes":"113","size_leaf_vector":"1"}},{"base_weights":[6.6346475E-3,3.6478844E-2,-1.0112851E0,-2.0002904E-3,3.1382432E0,2.8950122E-1,-1.8432349E0,5.2587885E-2,-1.273355E0,5.7295756E0,8.3664554E-1,1.7956E0,-1.5977438E-1,-3.4554112E0,-8.7931347E-1,3.3733793E-2,4.114157E0,2.1963742E0,-1.5378923E0,6.2249904E0,-3.231068E-2,-3.1352983E0,2.4219017E0,-5.996722E-1,1.6256508E0,-2.0016923E0,-5.3023744E0,-2.2301617E0,1.2882986E0,6.0991757E-2,-1.4878613E0,2.9796818E-1,9.763948E0,-6.16897E-1,4.3087177E0,-2.326744E0,-4.5945886E-1,1.3347732E-1,6.7100034E0,-1.071935E0,-2.0760371E-1,-6.316835E-1,4.6932745E0,-1.0151092E0,-6.6228E-2,-9.6183085E-1,-1.2322276E0,-4.7104743E-1,-1.7204359E0,-2.998474E-1,-3.9126801E0,-1.2824254E0,2.5713115E0,2.332653E-3,2.1789445E-1,-1.2981173E0,-1.372568E-1,5.805708E-1,-8.923474E-2,4.2093983E0,-4.557275E-1,3.209048E-1,1.4553169E0,-7.6799256E-1,2.9862243E-1,9.638757E-2,-1.0282308E0,2.0967145E0,5.8793396E-1,-1.0252259E0,4.8466182E-1,1.8845705E0,1.4434147E-1,-3.1575996E-1,3.6677748E-1,-3.107895E-1,-6.643382E-2,1.1262707E-1,-8.553023E-1,-1.9779725E-1,-1.2710803E0,4.9225488E-1,-9.052614E-1],"categories":[],"categories_nodes":[],"categories_segments":[],"categories_sizes":[],"default_left":[0,0,0,0,0,0,0,0,0,0,0,0,0,0,0,0,0,0,0,0,0,0,0,0,0,0,0,0,0,0,0,0,0,0,0,0,0,0,0,0,0,0,0,0,0,0,0,0,0,0,0,0,0,0,0,0,0,0,0,0,0,0,0,0,0,0,0,0,0,0,0,0,0,0,0,0,0,0,0,0,0,0,0],"id":15,"left_children":[1,3,5,7,9,11,13,15,17,19,21,-1,23,25,27,29,31,33,35,37,-1,39,41,43,-1,45,47,49,51,53,55,57,59,-1,61,63,65,-1,67,-1,-1,69,71,-1,73,75,-1,-1,-1,77,79,81,-1,-1,-1,-1,-1,-1,-1,-1,-1,-1,-1,-1,-1,-1,-1,-1,-1,-1,-1,-1,-1,-1,-1,-1,-1,-1,-1,-1,-1,-1,-1],"loss_changes":[7.145792E1,2.7272836E2,7.304027E1,1.5677428E2,1.622041E2,7.004926E1,6.067607E1,1.6572748E2,8.873999E1,3.826483E1,1.0833815E2,0E0,6.7054E1,2.9660767E1,8.193221E1,8.955359E1,2.1269739E2,7.174222E1,7.2943924E1,3.0655426E1,0E0,2.8759346E0,8.619462E1,3.6903957E1,0E0,1.7946056E1,6.786041E-1,5.4039215E1,2.1693275E2,7.505506E1,1.0918295E2,7.399637E0,2.1391083E2,0E0,3.5941772E0,4.1289703E1,8.915671E1,0E0,8.83728E-1,0E0,0E0,4.308199E1,4.3818146E1,0E0,2.9252542E1,2.0969248E-1,0E0,0E0,0E0,1.6574854E1,6.700699E0,5.060122E1,0E0,0E0,0E0,0E0,0E0,0E0,0E0,0E0,0E0,0E0,0E0,0E0,0E0,0E0,0E0,0E0,0E0,0E0,0E0,0E0,0E0,0E0,0E0,0E0,0E0,0E0,0E0,0E0,0E0,0E0,0E0],"parents":[2147483647,0,0,1,1,2,2,3,3,4,4,5,5,6,6,7,7,8,8,9,9,10,10,12,12,13,13,14,14,15,15,16,16,17,17,18,18,19,19,21,21,22,22,23,23,25,25,26,26,27,27,28,28,29,29,30,30,31,31,32,32,34,34,35,35,36,36,38,38,41,41,42,42,44,44,45,45,49,49,50,50,51,51],"right_children":[2,4,6,8,10,12,14,16,18,20,22,-1,24,26,28,30,32,34,36,38,-1,40,42,44,-1,46,48,50,52,54,56,58,60,-1,62,64,66,-1,68,-1,-1,70,72,-1,74,76,-1,-1,-1,78,80,82,-1,-1,-1,-1,-1,-1,-1,-1,-1,-1,-1,-1,-1,-1,-1,-1,-1,-1,-1,-1,-1,-1,-1,-1,-1,-1,-1,-1,-1,-1,-1],"split_conditions":[2.988217E1,2.9168886E1,8.000001E-1,2.628E1,2.3812042E2,1E1,2.5E0,2.6044699E1,-2.0855834E0,4E1,1.1E1,1.7956E0,8E-1,5.0852504E0,2.1E1,2.5417631E1,2.5E1,1E-1,2.7869207E1,1.7483337E-1,-3.231068E-2,2.4999998E0,4.0331664E0,1.2E1,1.6256508E0,3.3E1,1.1E1,1.6E1,3.5246925E1,2.3110207E1,2.254E0,1.3E1,3.7E1,-6.16897E-1,1.1E1,1.6408169E1,3.1E1,1.3347732E-1,1.8454E1,-1.071935E0,-2.0760371E-1,2E-1,7.2935834E0,-1.0151092E0,1E-1,3.3E1,-1.2322276E0,-4.7104743E-1,-1.7204359E0,1.2126919E1,9E0,4.9E0,2.5713115E0,2.332653E-3,2.1789445E-1,-1.2981173E0,-1.372568E-1,5.805708E-1,-8.923474E-2,4.2093983E0,-4.557275E-1,3.209048E-1,1.4553169E0,-7.6799256E-1,2.9862243E-1,9.638757E-2,-1.0282308E0,2.0967145E0,5.8793396E-1,-1.0252259E0,4.8466182E-1,1.8845705E0,1.4434147E-1,-3.1575996E-1,3.6677748E-1,-3.107895E-1,-6.643382E-2,1.1262707E-1,-8.553023E-1,-1.9779725E-1,-1.2710803E0,4.9225488E-1,-9.052614E-1],"split_indices":[5,5,4,5,6,0,4,5,3,2,1,0,4,3,2,5,0,4,5,3,0,4,3,1,0,0,0,1,5,5,3,2,0,0,2,3,1,0,3,0,0,4,3,0,4,1,0,0,0,3,0,4,0,0,0,0,0,0,0,0,0,0,0,0,0,0,0,0,0,0,0,0,0,0,0,0,0,0,0,0,0,0,0],"split_type":[0,0,0,0,0,0,0,0,0,0,0,0,0,0,0,0,0,0,0,0,0,0,0,0,0,0,0,0,0,0,0,0,0,0,0,0,0,0,0,0,0,0,0,0,0,0,0,0,0,0,0,0,0,0,0,0,0,0,0,0,0,0,0,0,0,0,0,0,0,0,0,0,0,0,0,0,0,0,0,0,0,0,0],"sum_hessian":[2.35E3,2.284E3,6.6E1,2.257E3,2.7E1,2.6E1,4E1,2.165E3,9.2E1,1.2E1,1.5E1,1E0,2.5E1,1.4E1,2.6E1,2.156E3,9E0,6E0,8.6E1,1.1E1,1E0,4E0,1.1E1,2.4E1,1E0,9E0,5E0,1.6E1,1E1,2.119E3,3.7E1,6E0,3E0,2E0,4E0,4.9E1,3.7E1,1E0,1E1,3E0,1E0,5E0,6E0,3E0,2.1E1,7E0,2E0,1E0,4E0,8E0,8E0,8E0,2E0,1.963E3,1.56E2,9E0,2.8E1,1E0,5E0,2E0,1E0,1E0,3E0,4.6E1,3E0,3E1,7E0,9E0,1E0,2E0,3E0,4E0,2E0,1.2E1,9E0,6E0,1E0,7E0,1E0,1E0,7E0,3E0,5E0],"tree_param":{"num_deleted":"0","num_feature":"7","num_nodes":"83","size_leaf_vector":"1"}},{"base_weights":[6.5099904E-3,-3.1164765E-2,6.2033904E-1,2.0543013E0,-4.7265563E-2,4.1994896E0,4.5167303E-1,-3.099004E-1,3.7402325E0,6.507251E-3,-6.894145E-1,-4.119892E-1,2.6844897E0,-7.5197756E-1,9.700899E-1,-9.157032E-1,1.9460344E0,4.51758E0,-4.8838407E-1,-1.8944914E-2,1.8279226E0,-1.1618347E0,9.2722344E-1,7.225056E-2,-2.1296273E-1,4.7189167E-1,-4.021441E0,5.8214035E0,3.7390643E-1,-1.4300967E-2,7.3691344E-1,-1.0210591E-1,5.1673656E0,-5.6067486E-3,-4.4596195E0,-2.736768E0,3.1972368E0,2.3620442E-1,-2.0449977E0,-1.5483891E0,2.2245831E0,1.5274671E0,-3.2146373E0,1.6815491E0,-6.370256E0,2.32257E0,-1.2403883E0,-2.3218458E0,8.622286E-1,1.8260514E0,4.817898E-1,-1.5783722E-2,2.97606E-1,-4.833496E-1,-2.0313056E0,-1.2820187E0,-1.547845E-1,1.0866805E0,-8.592642E-1,-9.68662E-1,2.540908E-1,-9.184193E-1,-9.206648E-2,-7.692174E-1,9.091248E-1,-7.4483615E-1,1.0390841E0,-1.782711E-1,8.5203165E-1,-8.250618E-2,-1.6051785E0,6.6854936E-1,6.1054234E-3,-2.2379835E0,-1.0246743E0,6.278166E-1,-1.1859913E0,-1.0664022E0,4.0220577E-1,-7.721358E-1,4.4031087E-1],"categories":[],"categories_nodes":[],"categories_segments":[],"categories_sizes":[],"default_left":[0,0,0,0,0,0,1,0,0,0,0,0,0,0,0,0,0,0,0,0,0,0,0,0,0,0,0,0,0,0,0,0,0,0,0,0,0,0,0,0,0,0,0,0,0,0,0,0,0,0,0,0,0,0,0,0,0,0,0,0,0,0,0,0,0,0,0,0,0,0,0,0,0,0,0,0,0,0,0,0,0],"id":16,"left_children":[1,3,5,7,9,11,13,15,17,19,21,23,-1,25,27,-1,29,31,-1,33,35,37,39,-1,-1,41,43,45,47,-1,-1,-1,49,51,53,55,57,59,61,63,65,67,69,71,73,-1,75,77,79,-1,-1,-1,-1,-1,-1,-1,-1,-1,-1,-1,-1,-1,-1,-1,-1,-1,-1,-1,-1,-1,-1,-1,-1,-1,-1,-1,-1,-1,-1,-1,-1],"loss_changes":[5.4388226E1,7.450521E1,8.020381E1,6.891908E1,7.5970825E1,1.3508078E2,8.247254E1,5.5434155E1,4.908377E1,9.418969E1,1.3091179E2,9.4883347E-1,0E0,1.619535E2,2.6391245E2,0E0,5.204468E0,3.0168259E1,0E0,1.1867282E2,1.8376398E2,1.6346297E2,1.2870317E2,0E0,0E0,1.2165253E2,1.5805986E2,1.4522443E2,1.1126279E2,0E0,0E0,0E0,1.6421616E1,9.379349E1,2.8594246E1,2.1683159E1,6.705371E1,1.1278483E2,1.4215622E2,7.287785E1,1.6024634E2,6.85284E1,4.248075E1,3.5890074E0,2.7734375E-1,0E0,3.540051E1,6.346424E1,1.5148724E2,0E0,0E0,0E0,0E0,0E0,0E0,0E0,0E0,0E0,0E0,0E0,0E0,0E0,0E0,0E0,0E0,0E0,0E0,0E0,0E0,0E0,0E0,0E0,0E0,0E0,0E0,0E0,0E0,0E0,0E0,0E0,0E0],"parents":[2147483647,0,0,1,1,2,2,3,3,4,4,5,5,6,6,7,7,8,8,9,9,10,10,11,11,13,13,14,14,16,16,17,17,19,19,20,20,21,21,22,22,25,25,26,26,27,27,28,28,32,32,33,33,34,34,35,35,36,36,37,37,38,38,39,39,40,40,41,41,42,42,43,43,44,44,46,46,47,47,48,48],"right_children":[2,4,6,8,10,12,14,16,18,20,22,24,-1,26,28,-1,30,32,-1,34,36,38,40,-1,-1,42,44,46,48,-1,-1,-1,50,52,54,56,58,60,62,64,66,68,70,72,74,-1,76,78,80,-1,-1,-1,-1,-1,-1,-1,-1,-1,-1,-1,-1,-1,-1,-1,-1,-1,-1,-1,-1,-1,-1,-1,-1,-1,-1,-1,-1,-1,-1,-1,-1],"split_conditions":[5E1,7.9526596E0,2.3E1,2.8E1,4.3E1,1.1E1,3.2E1,1.3727502E0,1.55373335E1,4.1E1,1.51727495E1,5.1E1,2.6844897E0,2.3469853E2,3.5E1,-9.157032E-1,8E0,-8.381416E0,-4.8838407E-1,6.2E1,5.540002E-1,3.3E1,1.3556282E1,7.225056E-2,-2.1296273E-1,3E1,1.3324863E1,1.6E0,3.8E1,-1.4300967E-2,7.3691344E-1,-1.0210591E-1,8E-1,4.4E1,2.4E1,3.1016406E2,4.8E1,1.3324863E1,4.9E1,5.2E1,3E1,1.7792374E2,7.355077E1,5.3E1,4.3E1,2.32257E0,5.8E1,1.5235249E1,1.0630672E1,1.8260514E0,4.817898E-1,-1.5783722E-2,2.97606E-1,-4.833496E-1,-2.0313056E0,-1.2820187E0,-1.547845E-1,1.0866805E0,-8.592642E-1,-9.68662E-1,2.540908E-1,-9.184193E-1,-9.206648E-2,-7.692174E-1,9.091248E-1,-7.4483615E-1,1.0390841E0,-1.782711E-1,8.5203165E-1,-8.250618E-2,-1.6051785E0,6.6854936E-1,6.1054234E-3,-2.2379835E0,-1.0246743E0,6.278166E-1,-1.1859913E0,-1.0664022E0,4.0220577E-1,-7.721358E-1,4.4031087E-1],"split_indices":[0,5,1,0,1,2,2,3,3,1,3,0,0,6,2,0,0,3,0,2,3,0,5,0,0,2,5,4,2,0,0,0,4,2,0,6,0,5,2,1,0,6,6,0,1,0,0,3,5,0,0,0,0,0,0,0,0,0,0,0,0,0,0,0,0,0,0,0,0,0,0,0,0,0,0,0,0,0,0,0,0],"split_type":[0,0,0,0,0,0,0,0,0,0,0,0,0,0,0,0,0,0,0,0,0,0,0,0,0,0,0,0,0,0,0,0,0,0,0,0,0,0,0,0,0,0,0,0,0,0,0,0,0,0,0,0,0,0,0,0,0,0,0,0,0,0,0,0,0,0,0,0,0,0,0,0,0,0,0,0,0,0,0,0,0],"sum_hessian":[2.35E3,2.215E3,1.35E2,1.6E1,2.199E3,5E0,1.3E2,7E0,9E0,2.03E3,1.69E2,3E0,2E0,3.9E1,9.1E1,3E0,4E0,8E0,1E0,2.003E3,2.7E1,1.31E2,